2581 100
) 0.37197465 -0.2450869 0.4750346 0.75877005 0.09159507 -0.45170936 0.087143876 -0.37545452 0.6451337 -0.28393313 -0.021414272 -1.0007657 -0.101719216 0.4123681 -0.017354593 -0.31732097 -0.09628105 -0.34823087 -0.03547426 0.89265513 -0.07651785 0.69376916 0.042042065 -0.22506094 0.27607235 -0.03807068 -0.28536183 -1.0821137 0.6307659 1.1563439 0.21441217 0.2925721 -0.36588165 -0.04035609 -0.082848705 -0.51980627 0.28860408 -0.52645385 -0.12168655 0.28781646 -0.20073467 -0.45933238 0.25947326 -0.5108877 0.70311403 -0.4072793 0.16555074 0.8715 -0.31266597 -0.10778611 -0.35786387 -1.2737001 0.5137646 -0.13119768 0.17891894 0.15950423 0.008028734 0.17876805 -0.7433451 -0.22435765 -0.59339553 -0.045844708 -0.2962594 0.15029953 -0.5728287 0.6242463 -0.29338035 -0.08431023 0.019760221 0.8276627 0.070210986 0.39103 0.67158085 -0.2946262 0.03164998 0.03676835 0.16141978 0.101205625 0.47984356 0.35812384 -0.09327827 0.03869573 0.29739854 -0.35722843 0.092597455 0.18618895 -0.36564434 0.20540085 0.17688458 0.45360926 0.16953664 0.3908328 -0.6870735 -0.25589782 0.27440083 0.35812274 0.16054665 0.87065035 0.5398677 -0.43966278
( -0.63282263 0.40945885 0.7970003 0.120747045 -0.44209316 -0.752173 0.5338088 -0.455073 0.72038287 -0.858848 0.049498327 -0.8740757 -0.02825661 0.68619674 -0.14013292 -0.3410113 0.055664863 -0.100757465 0.33705062 0.93813497 0.019474227 0.61656064 -0.0795607 -0.072947726 0.40006748 -0.494098 -0.8075491 -0.49942705 0.5920743 0.4219239 0.39129496 0.051391453 -0.2852687 0.4214185 -0.24613515 -0.24990843 0.6042012 0.019835595 -0.10306873 -0.07523298 -0.44939288 -0.11008999 -0.03661029 -0.667253 1.0669647 -0.39858627 0.23166692 0.73807615 -0.41941494 0.101716466 0.0569361 -1.8620188 0.3582742 -0.43712735 0.62686956 -0.56289303 -0.28339812 0.47945252 -0.67544055 -0.30621317 -0.26427743 0.61319125 -0.6346315 0.028207809 -0.30212206 0.2627364 -0.5209598 -0.4494181 -0.24721707 0.7724544 0.056016963 -0.12477267 0.85428375 0.18873383 0.28064 0.2926078 -0.22856782 0.6433312 0.28668505 0.47919422 -0.18996108 -0.22986259 -0.21683815 0.006377323 0.2035551 0.3387021 -0.51709604 0.50552154 0.56442946 0.23184973 0.0032217267 0.512275 -0.89749974 -0.08193038 -0.49630356 0.22752672 0.1532817 0.420291 0.76345605 0.042488802
= 0.21795708 -0.150449 -0.08946255 1.0590014 -0.6748508 -0.01610116 0.06675285 0.0018779804 0.3712516 0.16439357 0.100081176 -0.49559847 0.25780803 0.029437384 -0.07742687 -0.040450588 0.44273192 -0.4571628 -0.015949186 -0.4285472 0.8175857 0.7098126 -0.04318889 -0.38464206 0.07053187 0.7775117 -0.25853458 -0.24552722 0.19210179 0.69816387 -0.4138514 -0.08367111 0.6896386 -0.18963154 0.060131308 -0.34245297 0.5448173 -0.56291986 -0.21313232 -0.4086984 0.07995831 -0.166799 -0.21234979 -0.45837626 0.7336404 -0.94378245 0.014313717 0.44971517 0.05207034 0.24137871 0.228567 -0.5277444 0.654162 -0.41152468 0.119244576 0.025776751 0.17881571 0.4086135 -0.012862988 -0.8363381 -0.72706413 -0.058438294 0.41716385 0.17299764 -0.2924117 0.28300977 -0.014698012 -0.20489465 -0.009827471 1.2836803 0.1461104 -0.17572175 0.79277414 0.27043113 0.08332101 -0.32242998 0.6067308 0.5779558 0.8491262 -0.011837622 0.61531085 0.21957316 -0.24207677 -0.012332264 0.15477014 -1.137799 -0.6432336 0.15967982 -0.11544234 1.0008365 -0.3586707 0.876441 -0.15935892 0.5615659 -0.6901499 1.008936 0.4902753 0.31611058 0.008641135 -0.22294459
- 0.89465636 0.06501371 -1.320418 1.186321 -0.27626875 0.79289114 -0.1677241 -0.25237164 -0.6298392 0.14059287 0.81750786 0.21191971 0.60117626 -0.32222855 -1.1615986 0.28055477 0.06979961 0.43292242 -0.3924211 -0.21306756 0.43500715 0.9349855 -0.14550778 -0.09819349 -0.23609681 1.5374988 -0.15214537 -0.7176543 0.1698085 0.7788844 -0.7097048 0.32046446 1.2317876 0.5137036 0.40983593 -0.17729755 -1.0252904 -1.3112452 -1.0046266 -1.0490695 0.26765758 -0.53601944 -0.4310708 -0.22068903 0.8485542 -0.91506124 0.15982646 1.5077512 -1.3184342 -0.67090285 -0.98381406 -1.1686013 1.3352983 -0.97234875 1.0549756 -0.09547081 0.43799835 1.3335884 -0.31647983 -0.57889354 -0.687619 0.14055017 0.3646417 -0.8096673 1.050447 0.7157427 -0.6645111 0.17671819 0.05629802 1.0506225 -0.26213148 0.24445833 0.4716304 0.8386633 -1.4927199 -0.12549794 0.6868894 0.2952464 0.33479664 1.2713794 0.7199502 -0.21574289 -0.59535825 0.5259376 -0.19609134 -1.8042867 -0.04718428 0.06734967 -0.47197068 0.27983055 -0.7657676 0.4053418 0.062210675 0.48637754 -0.368496 0.3286002 0.5295846 -0.27337134 0.35385936 -0.69267523
> 0.8679607 -0.15146223 -1.0565542 0.9307297 -0.43372262 0.93885434 0.098513424 0.18873851 0.0345217 0.21814819 0.3101305 -0.30473906 0.6076943 0.05727244 -1.3043122 0.42803982 0.13168877 0.53180856 -0.90051186 -0.36531034 0.029070245 0.5037138 -0.4527419 0.57724804 -0.52102304 1.5806988 0.1212197 -0.35282913 0.118384466 0.15523233 -0.5549966 -0.30557227 1.0054889 0.17699274 0.52753115 0.2042574 -0.5700775 -1.5359691 -1.184937 -0.8744416 0.11210352 -0.502229 0.02180894 0.29857016 0.5815245 -1.052182 0.08474956 1.1107752 -0.78702444 -0.27091807 -0.8947832 0.44691947 1.8385931 -0.45119914 0.8732493 0.28480896 0.5805258 1.4921263 -0.8447721 -0.84587365 -0.8374503 -0.35457593 0.26923972 -1.1421672 1.3277258 0.7922712 -0.52438533 -0.081875935 0.37086004 2.0587614 -0.240522 1.4350523 0.8654441 0.44464928 -1.6177168 0.3245979 1.3313277 0.96228987 0.14385264 1.533536 0.90417266 -0.028055802 -1.2740643 0.7413899 -0.55886894 -2.8298447 -0.52507496 0.86247396 -0.88004816 0.28155762 -0.95693684 1.0895034 -0.015532167 0.906319 -1.473673 0.6103183 0.7932692 -0.3646543 1.025098 -0.39965034
* -0.8082361 -0.026237011 0.7134777 -0.21177085 0.8699511 0.29720318 -0.8125964 0.14839491 1.1370753 0.95494807 -0.29573897 -1.2722921 0.4528562 -0.23309644 0.8437148 -0.60409963 0.03151944 -1.2606754 0.8435716 -0.26932403 -0.12287215 1.2225922 0.90573126 -0.5331049 -0.22793804 -0.92753446 -0.3002335 0.052302696 0.1834238 0.65386 0.101316854 0.35349742 1.5632626 -0.36859176 -0.51758343 0.29155612 -0.35481024 0.54596925 -0.14357789 -0.88708854 0.042983707 0.10105871 -1.3744179 -0.024092566 0.14046498 -0.43734998 -0.10698408 0.04617028 -1.1281055 0.6562144 0.41892108 -1.1974658 0.12190248 0.20644347 0.55741626 -0.18387148 1.0274645 -0.36140746 -1.4761657 -0.48119578 -0.09832099 -0.030507987 0.19295922 -0.8576753 -0.0011670078 -0.9587989 1.6035686 -0.85093105 -0.86525154 1.2832146 -0.2551548 0.25556493 0.5831211 0.64268357 0.41486415 0.44933566 -0.3080017 0.6053254 0.2913974 -0.13409725 -0.8216968 -0.28374445 -0.45915827 0.37478137 -0.5886086 -0.6396903 -0.18899103 0.49368775 1.0029055 1.3876507 -0.9405702 1.4187965 0.15616521 -0.015815955 -0.18379109 -0.84175265 0.38624007 1.0549158 -0.5152583 1.0815905
" 1.6477879 0.36192617 0.04383995 -0.7738728 -0.5193375 -0.7616606 1.8033726 0.8537833 -1.3461682 0.17953731 0.27421904 -0.55668896 -0.7285779 0.20606315 -0.610917 0.2453421 0.0760228 0.32017323 0.32366762 2.279795 -1.0707827 0.20369166 0.24930994 -0.114037335 -0.17889683 0.8583996 -0.054952577 -1.093209 -1.2018547 1.059947 -0.06874295 0.29168126 -1.5831697 -0.08194061 0.013363073 -0.012186828 -0.6875486 1.1854671 0.87226796 0.0448633 1.4367033 1.7366147 0.069974 -0.5115523 0.025677918 1.5928245 -0.4739521 1.1285417 -0.06720083 -0.7559624 -1.1607033 -0.85153794 -0.6984722 0.034274474 -0.042406112 -1.1564173 0.39217222 -0.099106185 0.35211742 0.5115415 0.04106397 -1.1572075 -0.609207 -0.12329386 -0.8786202 0.15734021 -0.5006335 0.09733013 0.6642765 0.11739948 0.83981967 0.37935546 -1.2109052 -0.61934614 0.18301901 -0.35855323 0.67633015 -0.59263766 -1.9973049 -0.39595324 -0.8778976 0.2141141 0.30405492 -0.60259163 1.2033863 0.32957962 -0.5891797 0.5717683 -0.10468736 -0.7658434 -0.19612482 -0.66832507 -1.0996104 0.3909931 -1.7369791 1.2858562 -0.18644634 0.6695782 0.33406404 -0.45179874
} 0.04836887 0.33177373 0.028585754 0.66536516 -0.42322865 -0.4323175 1.1764129 -1.2863029 0.43347734 0.5302785 -0.020794874 -1.1058908 -0.57366014 0.1559996 -0.6687171 -0.23405747 -0.2309106 -0.6707567 -0.63197184 1.2214525 0.45439485 0.53913337 0.48967338 0.010596651 0.868668 -0.2247389 -0.56672734 -0.82084006 0.60221374 1.3188318 0.5116626 0.69594276 -0.30290622 0.070446305 0.20662662 -0.34260395 -0.2136764 -0.4096723 0.46201098 0.70126987 -0.026440952 -0.108296275 0.6264738 -0.03805346 0.7774797 -0.7790158 0.6196181 1.1297094 0.096568584 -0.55952847 -0.36895278 -0.8855844 0.7872519 -0.7914728 0.25214574 0.022315396 0.20233072 -0.442167 -1.2493025 -0.44867116 0.060525462 0.28572983 -0.19509561 0.5258492 -0.16064781 0.25505778 -0.0577511 0.08925503 0.550141 1.2989672 0.040600438 1.094016 0.18715104 -0.7242558 -0.47463 -0.12915872 0.04044855 0.44151545 0.042454123 0.32367736 0.49170187 0.099756375 -0.75234556 -0.06619939 -0.17127562 -0.09673977 -1.0035903 0.31696966 -0.6751996 -0.2182146 0.102013245 0.08988572 -1.4311553 -0.6157933 0.1128858 0.08859312 0.14855604 0.5446319 0.04389573 -1.0577111
{ -0.21635036 0.18343651 0.77030087 0.38224518 -0.37657836 -0.805437 0.50552917 0.02835909 0.15875754 -0.42914748 0.10673121 -0.56178486 -0.5148793 0.41286647 0.015819868 -0.5085539 0.11118332 -0.08769326 0.50126046 0.5344961 0.11641448 0.670813 0.020026868 -0.22234562 0.4539676 -0.36776653 -0.5646716 -0.44583392 0.53721106 0.24745733 0.0670588 -0.13213004 0.56525403 0.44492733 -0.03555124 -0.058413018 0.1786815 -0.00047709272 -0.08122102 -0.60528696 -0.09806646 -0.23635077 -0.3726555 -0.64060754 0.9088436 -0.1852151 0.349568 0.40507132 -0.33992055 0.1077351 0.07208941 -0.9664077 0.30436188 -0.41055292 0.5895354 -0.4008048 -0.45856267 0.28688347 -0.29563168 -0.29732513 -0.32354218 0.21029407 -0.3821587 0.1402596 0.10511146 0.45671523 -0.101767264 -0.20535609 -0.28055167 0.67684126 0.058159493 -0.09120388 0.44624573 -0.044364292 0.2843096 -0.0022812556 -0.2764752 0.52378744 0.45281088 0.44230124 0.22311981 -0.17885163 -0.2327914 -0.008478573 0.3218043 0.12296779 -0.6535196 0.62837386 0.24821155 0.17437471 -0.04130815 0.5608616 -0.45062825 0.2596717 -0.3275029 0.23635726 0.21740343 0.067262664 0.29371437 0.19296885
+ 0.14220124 0.4505997 0.09093383 1.2979332 -0.36069188 0.5179763 -0.9001064 -0.9177389 0.40254986 1.4031552 -0.31369027 -1.1270659 0.30238867 -1.2471147 0.03568964 -0.06319045 0.30093634 -0.024396516 0.27901524 -0.590342 0.2977468 1.0395145 0.6314185 -0.8708438 0.33192 0.44386503 0.6915646 0.37327278 -0.5792847 0.7748192 0.507705 0.3555295 -0.11540619 -0.4950979 1.484841 0.49744028 0.0672413 0.10930769 1.4784702 0.046952084 0.40313753 0.5858 -0.80250067 -0.11841917 1.2606062 -1.8243903 0.08822577 0.505238 -0.08829385 -0.31347856 0.36684498 -0.3659139 0.19978732 -0.8385478 -0.03966297 -0.3722391 1.2917535 -0.3123999 -0.6523276 -0.6958544 0.40187994 -0.13105972 0.784202 -0.37766328 -0.48255533 0.115464605 1.6572866 -1.3107544 0.21328153 2.3517616 -0.049950793 -0.9084509 -0.29385814 0.036034733 0.88335377 0.18946673 0.03728062 0.7339132 0.39729422 -0.57988155 0.33738115 0.34962344 -1.1268295 0.4043918 -0.82526886 -1.7432095 -0.8004786 -0.3715379 0.64185214 0.47059175 -0.308389 2.2359579 -0.5838603 0.4947868 -0.13834305 0.2371754 0.6068204 1.1607114 -0.2115014 -0.37613335
if 0.85306996 -0.111638494 0.7472056 1.6692688 -0.06741237 -0.29053032 1.0740526 -0.29232576 -0.034745786 0.14820229 0.01653095 -0.94509554 -0.58670634 0.35281053 -0.12963805 -0.25412175 -0.1442475 -0.45525336 -0.3241105 0.9214908 0.3126296 0.79282254 0.0047344263 -0.14242926 0.52579165 0.7322858 0.057079602 -1.0478239 -0.006324849 1.1982164 -0.0794141 -0.12632294 0.22239581 0.1391803 0.121350646 -0.00039114768 0.08062112 -0.83922476 0.21078965 -0.65393907 0.1926333 -0.22449797 0.106802255 -0.10653025 0.83381057 -0.4933593 0.34228766 0.99915224 0.059787624 0.02992365 -0.41613102 -0.9271851 0.92695016 -0.45339555 0.10447653 0.35033137 -0.7025049 -0.027397748 -0.14886186 -0.3697245 -0.08825417 -0.19107702 -0.43395296 0.2192468 0.13569115 0.9044792 -0.7848694 0.5261101 0.10888666 0.1869387 0.40674037 0.5916338 0.4407496 -0.2850599 -0.26629305 0.19985278 0.4872513 0.031079004 0.40871444 0.4890414 0.5157682 0.01535239 0.032724015 0.14009832 -0.229443 0.25633007 -0.6317517 0.32594812 -0.70645016 -0.26568592 0.24626239 0.0071343016 -0.04448821 -0.15769583 -0.098577864 0.29835084 0.29182038 -0.13409768 0.42944163 -0.31473053
0 -0.12592445 0.34633636 0.2824457 1.1527488 -1.1367297 -0.20391905 0.30268213 -0.42747292 0.07467764 -0.16021077 -0.0048336163 -0.45094395 -0.31198817 -0.68084687 0.14885916 -0.11263074 -0.28671783 -0.4588414 -0.016887324 -0.25428507 0.38543537 -0.082944006 0.046867836 -0.21020754 0.2699679 -0.21398568 -0.48963478 -0.53333664 0.268342 -0.046533953 0.6925818 0.11542588 0.6695893 -0.06504107 0.076499954 -0.3475076 -0.7377569 -0.24338509 0.86366713 -0.6043525 -0.00996773 -0.23531377 0.07412849 -0.43556592 0.42127633 -0.8378666 0.3328848 0.4281673 -0.38551486 -1.036435 0.08668538 -0.80629617 -0.066037916 -0.79101145 0.32842827 0.20303318 0.38104767 -0.14497976 -0.057338852 -0.12392173 -0.71106476 0.17402034 0.5459245 0.12941165 -0.4509786 0.10558239 0.035194505 -0.22272414 0.43511832 1.894919 -0.27356184 0.31478336 0.09555265 -0.36675 0.60415363 -0.5598629 0.67308104 0.426575 0.6099511 0.38724065 0.6335529 0.05318557 -0.069228865 -0.21758105 0.0044182246 -0.6460006 -0.7548105 0.13284746 0.33650774 0.39481398 0.06798656 1.0311326 -0.69610965 0.447036 -0.5699158 0.9678972 0.019512769 0.288117 0.1856543 -0.03122166
tif 0.5626027 -0.81561685 1.5136458 1.2778553 1.0652183 -0.48077995 0.18546857 0.049802903 -0.46495894 -1.4914513 0.07262825 -0.87741464 -1.1037215 0.3432289 -0.07228859 -1.1994332 -0.49048376 -0.61518323 0.13268626 2.1477027 -0.9180351 0.50643843 -0.29921144 0.2614543 0.742441 0.09348666 -0.44786286 -1.1571077 0.5489915 0.5505487 0.067073405 -0.21914645 1.3683838 1.3619312 -0.015709648 0.34313118 -0.028212644 -1.2777044 -0.8039269 -1.5763547 -0.46141982 -0.7776029 -0.7370068 -0.8622876 1.1183262 0.4756137 0.79499245 1.1368127 -1.2335849 -0.51077324 -0.8353991 -0.98073006 1.0603083 -0.19031692 1.3135847 1.0675192 -0.59786934 0.3169674 -1.1460588 -0.20159285 -0.7798498 -1.2070687 -1.9705796 -0.9688837 0.121008724 1.0938243 -0.90802044 1.2202324 -1.6722971 -0.14722621 0.6149825 1.5726391 0.3996378 -0.16908629 -0.9760053 0.11624756 0.79645854 0.076639526 0.31229487 1.7907497 0.33052942 -0.66675985 -0.15335889 0.4268627 -0.3877077 0.43930063 -0.5716152 1.6148459 -1.1163683 -0.75932693 -0.5881369 -0.43745726 1.1951561 0.9849471 -0.38732973 0.027966784 0.9456039 -0.16378988 0.7676422 -0.5450981
[ 0.73272693 0.25597757 -0.17309591 0.26185426 -0.90392786 0.31139448 0.07015484 -0.9743796 -0.36536232 1.2046417 -0.59761804 -1.3792193 0.111667424 -2.0653722 -0.47621372 -1.4519815 0.66412383 -0.91909593 -0.03861329 0.22388676 0.21629065 2.570543 1.4834976 -2.0167994 0.43674776 1.0996832 -0.99901414 -0.005001798 -0.24345326 2.1781077 -1.2881341 0.0061327317 -0.025625166 -0.094689466 2.1652694 0.0062550833 -1.0486152 -0.14999929 1.3802214 -0.7692737 1.1667256 1.3586717 -0.5361108 -0.06266211 0.81424344 -0.7135135 -1.126576 0.9388456 -0.13422467 0.523716 1.1371942 -0.009160304 0.2571321 -0.49559233 1.0405619 -0.9090709 2.2120128 1.027827 -0.69227767 -0.9340106 -0.18063046 -0.45101532 1.3387487 -0.52724904 -0.07685045 -0.7475323 0.19145848 -0.80322367 0.992702 1.791377 -0.24454074 -1.905615 -0.2495369 -0.0781664 -0.4547723 -0.90066344 0.49090186 1.0285983 -0.35948014 -0.18200843 -0.09042661 -0.12538642 1.0359254 0.3036347 0.29641074 -2.0635095 0.41072208 -1.0524143 1.6856846 -0.213892 -0.13710822 0.5477577 -0.7604137 1.20644 -0.4921088 0.686242 -0.1826233 -0.5985955 -1.31084 -0.21177702
] 0.38455495 0.24159802 -0.30448785 -0.5981252 -0.7734094 -0.3023398 0.65810823 -0.932771 -0.036964286 1.2002531 -0.11128114 -1.5238972 -0.27932075 -1.7986357 -0.5293987 -1.3374577 0.21813473 -0.23726705 0.07250633 -0.43721864 -0.61427075 1.1134859 0.9357809 -0.35351357 -0.34749126 0.8357742 -0.5007082 -0.013670484 -0.41936484 1.1643603 -1.3559684 -0.09660362 0.22381048 -0.16874841 2.334306 -0.068045355 -0.9696665 -0.09674245 0.7775707 -0.8349126 1.3588107 0.8947635 -0.23648876 -0.5467675 2.4495075 -0.6994799 -1.1870933 0.4397629 -0.115649834 0.27525476 0.4952046 0.09693229 0.3521305 -0.31768113 0.1720102 -0.76742804 2.168388 1.3436751 -0.2328576 -1.4495203 -0.23585862 -0.55867213 0.5529067 -0.08469019 0.18653688 -0.43846503 0.6418486 -1.0722567 1.8777863 2.8565273 -0.60481477 -0.14210653 0.8158855 0.17638958 0.23219301 -1.1545457 0.8575738 0.9969172 0.84639 -0.41910774 -0.08114002 -0.6510625 1.105736 -0.13149382 -0.34715754 -2.113109 0.7648075 -1.0118564 1.5463387 -0.45055017 -0.28173837 1.1359892 -0.6268016 1.0896965 -0.5529379 0.6609058 -0.83790106 0.46230203 -1.6642655 -0.9664054
1 0.31158438 0.39922574 0.5012258 0.618579 -0.46811825 -0.18999057 1.331782 -0.73975 0.650528 0.1050404 -0.39972726 -0.8845193 -0.37890568 -0.6696903 -0.19096464 -0.28858835 0.09727555 -0.28331664 -0.5456421 0.7939493 0.17698184 0.09361822 0.6412196 -0.14263968 0.13042438 -0.23777097 -0.90277195 0.0016930485 0.67442507 0.7085548 0.064255945 0.28297687 -0.33574533 0.38599622 0.5537135 0.14565232 -0.84531176 -0.17692062 0.41334513 0.18950965 -0.01683272 0.21464321 0.011168527 -0.13905379 0.17470804 -0.62719834 -0.08870967 0.34597245 0.34377965 -0.2466775 0.45101598 -0.064744376 -0.19825493 -0.58006173 0.11280583 -0.24082173 0.61203957 0.15189472 -0.68707585 -0.47526884 -0.34059155 0.069567166 -0.020348804 0.34757438 -0.44263658 -0.19597006 -0.10508327 -0.64067334 0.71675587 1.3182833 -0.4243444 0.5143706 0.22328189 -0.6465593 0.3131328 -0.47535554 0.41876614 0.41899464 0.08346772 -0.013685429 -0.20331584 0.1846701 -0.2880074 -0.28537014 0.11290485 -0.516402 -0.010691484 0.58692276 0.0036710869 0.27242768 0.040008347 0.62063307 -1.0302943 0.05360728 -0.41733968 0.4775107 -0.28982642 0.25110412 -0.16784543 -0.08621675
i -0.29919258 1.2698318 0.26562595 0.5345277 -1.4332424 -1.2494879 -0.1930499 -0.05885298 -0.08823308 0.74545676 -0.34061185 -1.4449087 -0.36488748 -1.7609793 -0.5996898 -0.6057898 0.26021728 0.751926 -0.40539536 0.6693817 -0.3480456 1.266186 0.716342 -1.3165598 0.07265013 0.0183488 -0.27728805 -0.39128473 -0.45294687 0.20416458 -0.6837675 0.8466422 -0.19744173 -0.41474354 1.5098528 0.077998884 -1.7132491 0.41258073 1.397803 -1.6523665 0.42379513 0.80352354 0.14993557 0.51028156 1.1591214 -1.0096843 -0.48137912 0.14510271 0.19114672 -0.952882 0.17401513 0.15233721 -0.023475505 0.26420498 0.48325238 -0.8938452 0.77094996 0.42193252 -0.019298298 0.25869918 -0.12545308 -0.43694818 0.86031514 -0.14154412 -0.35099062 0.445923 0.9261441 -0.38433763 1.7180147 1.9158546 -1.645011 -1.2518231 -1.0179597 -0.5442716 0.31145516 0.07084842 -0.23205349 0.6444311 0.4180528 -0.20269059 0.8971248 -0.61060685 0.8847397 0.33459035 0.45107043 -2.4307148 -0.44416898 -1.2346258 1.0824283 -0.4818405 0.07035374 2.021722 -0.57305753 1.520957 -1.2187351 1.6277297 -0.35536176 0.03458057 -0.5997694 -0.04555638
< 0.9965068 0.6839042 0.23018268 2.2107313 -1.9072481 0.14557545 -0.33936393 0.32469743 -0.44606066 0.78226453 -0.7123444 -1.3213431 0.16871701 -1.5983086 -0.17535323 -0.21622196 -0.13314743 0.35109803 -0.46324944 0.055368762 0.49344677 0.38179818 0.43119642 -0.99776137 0.94788766 0.7522664 0.89908844 -0.6832481 -0.8311427 0.43791318 0.59727097 -0.060459178 -0.16179991 -0.42790744 0.61558026 0.32527247 -0.6369211 0.31522456 1.9208908 -1.184534 0.8422238 1.3109202 -0.15303542 -0.40795997 1.3594753 -1.8042847 0.17045477 0.7280539 0.4328901 -1.3760705 0.13205884 -0.66405404 0.33850962 -0.6727395 -0.2954276 -0.3049711 1.0469813 -0.12971549 -0.20538329 0.031326544 -0.51487106 -0.32119894 1.498608 -0.33509788 -0.35014746 0.12177899 0.62937653 -0.6230201 1.180738 2.2103217 -0.5975249 -0.46413666 -0.71722865 -0.2312269 1.2258035 0.16578184 0.84005827 0.83565575 0.53446376 -0.47518292 1.4945867 0.3548672 -0.49291307 0.18725498 -0.03518847 -2.0000536 -1.1555681 -0.571595 0.8500447 0.31381738 0.30546263 2.2662425 -0.9253051 0.5531802 -0.6428453 1.5213538 0.19146098 0.32561943 0.37153354 -0.25119162
return 0.24254018 -0.07744443 0.5469028 0.7151132 -0.57316864 -0.5221077 1.4783036 -0.7678239 -0.07164688 0.06616855 0.29034284 -1.10391 -1.0191343 -0.17422843 -0.7411347 -0.16210233 0.14728662 -1.0816326 -0.019973561 1.0992367 -0.14075206 0.50093424 0.067997314 -0.091795675 0.84765863 -0.15354843 -0.8820607 -1.0076874 0.27750388 0.8564747 0.9655535 0.6164338 -0.14236768 -0.191197 -0.010851884 -0.62525666 -0.17125219 0.25915596 0.17907976 -0.29189274 0.2417019 -0.0017116185 0.10392596 -0.46451524 0.27155292 -0.0275006 0.68448436 0.8725654 -0.09194133 -0.9023353 -0.35405296 -0.35066628 0.38208354 -0.28974634 0.5981502 -0.02085681 -0.29110184 -0.38109824 -0.572483 -0.2802183 0.08627356 0.12450424 -0.6498287 -0.38924524 -0.1853318 0.021715112 -0.32860756 0.32840386 0.13432483 0.6446485 0.71477896 1.4588082 0.4059567 -0.23691534 -0.647731 -0.588042 0.36205044 0.5325346 -0.2256675 0.49253953 0.7546247 -0.48983184 -0.4137426 -0.41610187 -0.36484966 0.20614609 -0.9915522 0.39924356 -1.1967635 -0.6761735 0.02808492 -0.72934884 -1.2089344 -0.19935691 0.011872626 -0.4115246 0.53287035 0.43042156 -0.33214775 -0.90074646
case 0.19740938 0.6726813 0.119822845 -0.23987956 2.0146813 -0.5328861 2.8951254 -0.85717684 0.9503292 2.582631 -0.26624888 -1.3607899 -0.398697 0.34031132 -0.61692524 -1.4257467 -0.6276603 -0.18326737 -1.3250068 2.6208766 0.9490767 1.4548892 2.701192 -0.4124974 -0.53494596 -1.2110761 -1.0921193 -0.0075442134 0.8513152 2.4539733 -2.522347 2.5100625 1.2308561 0.9631073 -0.31490394 0.62993693 -2.6951785 0.106174976 -1.8902857 -1.3919407 -0.09391114 0.9496437 -0.15877718 0.88105005 0.5427638 -0.35345966 -0.42038158 1.5014151 0.23656945 1.3958488 -0.39793667 -0.3884512 0.6298684 0.5685228 0.109932505 -0.4334413 0.734636 -0.11056949 -2.507186 -0.6307625 1.5840404 -0.3265173 -1.0453554 0.9190882 0.69853866 -1.2721066 1.1773199 0.0879111 1.1298132 0.51861364 -2.0932527 2.1692424 -0.5612034 -1.1635888 -1.7647097 0.6661226 -0.2704321 -0.32859364 -0.0074285297 0.25709093 -0.61585075 -0.14713614 -0.38748735 0.64086473 0.44170153 -0.4109811 0.20999064 0.43461218 -1.5516804 0.18503553 -1.0025563 -0.68877965 -0.40206802 -1.4433454 -0.21265875 -0.62616307 -0.41178077 -0.19771804 -0.61545277 -0.2160103
break 0.19992842 0.66210526 0.17599994 0.14998908 0.9945447 -0.80773026 2.6387506 -0.58610046 0.013415177 1.8305416 -0.09829837 -1.1081426 -0.86057484 -0.03259383 -0.72672665 -1.0953844 -0.18013056 0.08977975 -0.62189066 2.1261468 0.93410486 1.3102695 2.2548068 -0.55520386 0.095090605 -0.93788505 -1.1033888 -0.17533673 0.7566487 1.9808433 -1.3746481 1.748741 0.8356713 0.86059755 -0.048355788 0.46988815 -2.4716609 0.64124507 -1.082378 -0.99928325 0.15244699 0.6473228 0.10093016 0.56771874 0.37143555 -0.39651838 0.19057792 0.9234418 0.24287175 0.9090045 0.05677034 -0.3067376 0.32784528 0.07562788 -0.10066103 -0.71435606 0.3246853 -0.054414783 -2.1172645 -0.5902116 1.3731303 -0.073245674 -0.9310199 0.7578617 0.89442194 -1.1416487 0.88933074 -0.15407276 1.1358334 0.6925802 -1.5013362 1.775466 -0.5293665 -0.8248314 -1.4119148 0.40034413 -0.5071744 -0.02326973 -0.17083734 -0.06362334 0.27818042 -0.22679582 -0.41120464 0.35585576 0.64180124 0.04565047 -0.37640724 0.5036693 -1.3012056 -0.0729413 -0.3270201 -0.4578465 -0.9410807 -1.5808026 0.28476083 -0.83011436 -0.08000959 -0.25817868 -0.5524605 -0.31710687
int -0.7303937 -0.5339756 1.0390825 -1.083597 0.69787234 -0.5967448 -0.9668376 0.63378954 0.32793015 0.6216265 -0.20265459 -0.5166715 -0.26921752 -0.25314423 1.5170443 -1.1869239 -0.083419695 -1.2854911 0.9262939 -0.1869245 -0.6674895 0.881577 0.19356102 -0.7250727 0.1108315 -0.685501 0.13354447 -0.21703519 -0.26146662 0.4489309 -0.06912418 -0.104071386 1.4364523 -0.58174413 0.03827249 0.33747873 -0.05758174 0.837285 0.9651229 -1.3649813 0.31312212 0.4036539 -1.0467151 -0.25378025 0.680655 0.30561903 -0.283811 -0.0039287847 -0.82145876 0.3672648 0.19987835 -1.001565 -0.3790367 0.7642495 0.54452306 0.05878258 0.5113956 -0.5312342 0.019617967 -0.24555516 -0.07325632 -1.0715511 0.35945207 -0.5614196 -0.860802 -0.5817683 1.2143384 -0.3250551 -0.7307449 0.8885428 0.26896796 0.0050401967 -0.0030458195 0.16966487 0.8854082 -0.38742694 0.36684865 0.12327128 0.36958528 -0.02495854 -0.2197771 -0.1901648 1.2575607 -0.1694222 0.12268021 0.10755441 -0.492186 0.018732987 0.87785774 0.18906787 -0.21861744 0.6759591 0.8662055 1.0568796 -0.8823002 0.3693553 -0.19542189 0.4599168 -0.72713256 0.896283
uint32 -0.45361334 -0.30580327 0.8376805 0.9974753 0.498246 0.29737434 -0.8198046 0.9103451 0.75285465 0.06809918 -0.63604295 0.1730308 0.4605686 -0.90287083 1.313099 -0.59508955 -0.058120195 -1.0332903 -0.15283188 0.09345722 0.6150764 0.22894955 0.6787627 -0.5267746 0.28757656 -1.0655243 0.13988303 -0.1301961 0.63762 0.07022135 0.006384464 0.20985831 2.1468902 0.07346915 -1.1346374 0.77917546 -1.316454 0.7175349 -0.23346926 -2.3737097 -0.5201064 0.30867264 -1.5085082 0.08262042 0.036395725 -1.2294841 0.5593838 -0.058682267 -0.39549983 -0.10386786 0.42281199 -0.9690116 -0.123369746 0.50834787 0.089759275 0.715486 0.016912933 -0.46851113 -0.5163059 0.09480818 -0.4837521 -0.34452432 0.29582512 -0.59478366 -0.33356106 -0.97881025 1.6078316 -0.2197794 -1.0300134 0.58800125 -0.96681046 0.59207034 -0.24836138 0.23507825 0.8873897 0.34037012 0.33130345 -0.14508517 1.0999975 -0.082300365 0.37762403 0.56316227 -0.76779 0.22470565 -0.42602304 -0.84449863 -0.38991055 0.64954954 -0.6192811 1.6020911 -0.31692612 1.5293497 1.2610643 -0.14341071 -0.354544 0.21200605 0.5742768 0.3926703 -0.13599718 0.94114375
t2p 1.797442 -0.24391934 -0.8894125 1.6482272 -0.65580136 1.1295024 1.328074 -2.3629997 -1.1767005 -0.50353104 0.2828405 -1.0033942 -0.30234382 -1.1827452 -2.1121385 0.7971272 0.5243596 0.90377116 0.099764 0.64072514 -0.6809903 0.92769516 0.30479524 0.13461868 -0.033208847 3.01535 -0.84195983 0.06344696 0.029802877 1.1283389 -0.301135 0.006167336 -1.6310456 0.88639885 2.7701864 0.11275975 -0.64283866 -2.661205 0.15730205 0.4745967 1.6919321 0.28102598 -0.12763971 -1.0883588 2.0384734 -0.3548152 -0.69137174 1.5128435 0.18237437 -0.1095506 -0.29673123 0.16682652 0.4596574 -3.3621964 0.9376796 -0.6903242 0.4686896 1.4566548 -0.27859083 -1.0498531 0.06943158 -0.1515917 -1.3495241 0.2796126 -0.5826112 1.3437568 -0.86242527 -0.73995954 0.83865285 2.0971437 1.2933735 0.51089936 0.8825786 -0.0028242993 -1.1579475 -1.1768725 1.556028 0.49047598 -0.57118315 1.0530406 -0.367667 0.16471884 -1.7640812 -0.061306376 -0.7088848 -1.7996491 0.19521187 1.0973558 -1.3240776 -1.5657576 -1.0909554 0.2343319 -1.245414 2.475758 -0.86394286 0.67694813 0.52249783 -0.451135 0.08052624 -2.3738961
char -0.16476926 -0.7388924 0.917964 -1.135341 0.7827272 0.025432093 -0.5533892 -0.37654555 0.7483173 0.97259676 0.25930345 -1.4978373 -0.23869884 -0.52523136 1.0608786 -1.0861038 0.5419437 -1.8680663 1.9000185 -0.21062334 -0.84158885 1.5626491 0.21494344 -0.4488449 -0.6503187 -0.2030087 -0.5685387 -0.062181134 -0.6522841 1.2525702 0.34429458 -0.08713181 0.514148 -1.0832918 0.7519487 -0.12544483 1.0054995 0.8747517 0.87092364 -0.100850806 0.35588416 0.060747202 -1.2565008 -0.76481515 0.4717752 0.39068678 -0.6667089 0.47447512 -1.4674759 0.5817395 0.25321752 -0.6205149 -0.66807646 0.43835258 0.38527384 0.12975389 1.5833445 -0.03177436 -0.35607603 -0.9388845 -0.044555917 -0.74989736 -0.19968069 -1.3111507 -0.76297015 -0.64402026 0.8905003 -1.3496813 -0.7991237 1.6593051 1.3771788 -0.68924415 0.87653977 0.86739117 0.79281706 -0.66929525 0.8032886 0.7381703 -0.18099117 -0.00120237 -1.5780619 -0.41896883 0.8092425 -0.45506725 -0.2405535 0.26863194 0.24237803 0.041654754 1.7127036 0.5088319 -0.36517957 0.6168885 0.22669142 0.60144365 -0.82492584 -0.30812547 0.52566844 1.5473752 -0.513531 0.5584546
uint16 -0.44094375 -0.12888692 1.285026 0.82830983 0.9922878 -0.30332634 0.08868086 0.4594633 1.4641273 0.8766064 -0.49715725 -1.2138938 0.4388904 -0.54089874 0.3563004 -1.1334845 -0.22133432 -0.661543 -0.20199858 0.7330762 0.02751693 1.1140875 0.8994401 -0.6507795 -0.23546615 -0.92011136 -0.46242625 0.12023755 0.42992824 0.9383582 -0.6698114 0.87237495 1.9496814 0.41608477 -0.09625417 0.7846378 -1.1283104 0.59965324 -0.97685534 -2.219494 -0.50688493 0.2221756 -1.411789 -0.168469 0.5475494 -1.0530676 -0.2058703 0.37918258 -0.5190635 0.5422808 0.60872954 -0.44077602 0.16332684 1.0322299 0.6090165 -0.035702962 0.91308975 0.33811736 -1.3759693 -0.28152803 -0.28221548 -0.55614823 -0.081025586 -0.87312317 0.003004804 -1.148489 1.2757148 -0.2992708 -0.6338904 0.62901133 -1.4669527 0.4801331 0.36412182 0.45747674 -0.08630019 0.3602484 -0.026035603 0.6104672 0.96442425 0.16449729 0.060196377 -0.65739524 0.21495965 0.521691 -0.028481124 -1.2584969 0.057404812 0.111648455 0.38488352 1.3697935 -0.5436271 0.6271037 1.0575389 0.038508553 -0.040799312 -0.32490808 0.05678551 0.25785106 -0.42585248 0.87269014
else 0.56041026 0.22515906 0.44139597 0.8663697 -0.26960254 -0.37213472 1.507382 -0.5499742 0.29233027 0.8151043 -0.1401047 -0.88001376 -0.7402521 0.15160419 -0.5473431 -0.45925844 0.23884848 -0.24312069 -0.50649154 0.7074751 0.57652646 0.47572365 0.5555293 -0.12238684 0.47380996 0.48715878 -0.4066573 -0.22239897 0.147322 1.2013015 -0.18337363 -0.037046786 0.055110104 0.2490058 0.67681706 -0.0042324713 -0.22228281 -0.16693501 0.13490497 0.21690941 0.40208873 0.24910076 0.03671075 -0.1613095 1.1269257 -1.0950829 0.15636754 0.93450326 0.48614728 0.46028855 0.2408407 -0.23945014 0.8959812 -0.51767844 -0.05390752 -0.13899712 0.21984757 0.2131708 -0.7842943 -1.0686406 0.27165982 -0.17594065 -0.12267076 0.7200763 0.13440248 0.24676739 0.04042042 -0.14896935 0.3885725 1.2810881 -0.054980554 0.5549656 0.27970478 -0.5551118 -0.23324615 -0.24497724 0.17979844 0.24832188 0.3627492 -0.17855217 0.443397 0.19183967 -0.15835412 0.2667152 -0.10503113 -0.21041259 -0.55769366 0.12785578 -0.5571198 -0.17519476 0.09807198 0.039190877 -0.7366019 -0.55697984 -0.10037184 -0.022608079 0.036561918 0.07923329 -0.2883994 -0.54612356
td 1.1285242 1.0176452 -0.35474074 0.6547062 0.17908661 -0.7684964 1.0970204 0.13028646 -0.4035627 0.8203214 0.47156227 -1.4768972 0.43013898 -1.1665401 -2.0037913 -1.2098204 -0.27598038 1.0973638 -1.0184085 2.2886317 -0.5593741 1.4773229 1.5972852 -0.55806273 -1.2055454 0.4089289 -1.3753377 -0.35364756 0.40970823 1.0583842 -2.6233702 1.7678181 0.7746546 1.2225701 0.805661 0.18857956 -2.8560982 -0.53278524 -1.8309809 -1.8187171 0.2255747 0.9132101 -0.71820337 0.026626807 0.5070494 0.084156215 -0.7847805 1.5179781 -0.8386379 -0.43840715 -0.4802704 0.3631666 1.0451317 0.64736825 1.028088 -0.783051 2.108154 2.1415858 -2.1202033 -0.17892364 -0.5076336 -1.0386487 -0.30114028 -1.1204903 1.1718843 -0.53373766 -0.124683514 -0.15027575 1.160863 0.8493973 -2.5355544 0.049229752 -0.56213754 -0.009846531 -2.23214 0.044057567 0.3418418 0.33236423 -0.24262828 0.745348 -0.17830212 -1.1674798 1.0631737 0.60879296 1.179901 -2.1818192 1.2036841 -0.3725146 0.8536239 0.1973166 -0.96131766 0.18621157 0.13746542 0.61056155 -0.7837807 0.60201424 0.122311875 -0.029389009 -0.3772326 -0.37822333
for 0.6675543 0.49778262 -0.1292327 0.90427035 -1.3751739 -0.18258318 -0.3030177 0.8204001 -1.0218686 0.1696694 -0.120777264 -0.25954488 -0.40336674 -1.1976773 -0.11981419 0.28440315 -0.05497263 0.124877915 -0.13848475 0.46502724 -0.34139583 0.066704385 0.049703293 -0.628907 0.4314201 0.38443753 0.5116882 -1.0121167 -1.0422996 -0.062372036 0.48403284 0.06204 -0.3677464 -0.6771432 0.15714316 -0.035503983 -1.2046387 0.87635064 1.672749 -1.3226897 0.80683315 1.0936329 -0.026316201 0.15170193 0.07917776 -0.22985242 0.1615511 0.38793027 0.140652 -1.4577222 -0.4488993 -0.18981598 -0.48198953 0.15544865 -0.05958059 -0.16133812 0.2730035 -0.48807612 0.63490504 0.78632694 -0.23657763 -0.71525836 0.6940023 -0.5590226 -0.6081692 0.21548893 0.5817357 0.056240074 0.91883963 1.0172887 -0.06787629 -0.055066124 -1.4751363 -0.5342367 0.7648903 -0.053613473 0.67729753 0.016999755 -0.48371387 -0.20768799 0.7992062 0.2776647 0.07945797 -0.3064427 0.32236916 -1.1381313 -0.862706 -0.25665265 -0.0970387 -0.33427617 0.18797764 1.1924866 -0.4816259 0.7233444 -1.2097926 1.4252748 0.39125526 0.35597122 0.123283036 -0.13473922
unsigned 0.87005115 -0.5844558 0.29144925 -0.6095867 0.07320844 1.1101161 -1.307251 -0.029220618 -0.315952 -0.09946854 -0.074192405 -1.2102197 0.20059788 -1.1391648 0.8554117 -0.67670935 0.51698166 -1.6440244 1.7871195 -0.37228614 -1.527063 1.3174161 0.24753042 -0.6746434 -0.16282706 0.20666352 -0.07166124 -0.91337687 -0.2791906 0.4210882 0.77946085 -0.8546073 -0.2418731 -1.110021 -0.3149609 -0.20587543 0.54805917 0.612422 1.0771476 0.19720063 1.1898221 0.57046664 -1.613989 -0.97661734 0.013983546 1.0742782 -0.16519837 0.22089592 -2.0062013 -0.54847175 0.057181723 -1.3732778 -0.3404007 -0.45834184 0.59956074 -0.08067759 1.7051555 -0.11418433 -0.679109 -0.118282914 -0.538434 -0.60868156 0.2902962 -2.0644133 -0.2747125 -0.40439573 0.5331947 -1.4627191 -0.74424773 1.2511628 1.5954583 -0.9316215 0.5112192 0.95553625 1.2482064 -0.5713705 1.1125102 0.50168276 -0.99820906 0.25808266 -1.799004 0.014219501 -0.075920925 -0.5624242 -0.6805982 -0.06112726 0.5130158 0.7142717 1.892706 0.47104034 -0.60155547 1.3593286 -0.61767316 0.6517367 -0.422701 -0.69084173 1.1040606 1.8544577 0.11549271 0.46338975
sp 1.1676191 -0.340367 -0.47516975 1.9866376 0.38240218 0.8484081 -0.29501712 -0.44301 -0.4743738 -0.140666 1.3643363 -0.80307764 0.3523389 -0.4014622 -1.0736789 0.057362016 -0.29509595 -0.5163934 0.53636116 -0.32067642 -0.2563326 0.83703005 -0.30848703 0.31725034 -1.107234 1.12367 -0.7268394 -0.16729923 0.45309296 0.34868935 -0.41576692 0.548893 2.1237783 0.65073836 0.16584207 -0.35476032 -0.5110862 -1.9951231 -1.4862639 -0.7268741 -0.106131926 -1.559915 -1.2114027 -0.7681772 0.0012394969 0.060515817 0.632075 1.1184065 -2.3500135 -1.0805746 -0.85089755 -0.21325001 1.3415866 -0.96918225 1.634448 0.8445445 1.283794 1.0020702 -1.4512397 -1.008101 -1.2307985 -0.7647529 -0.652746 -1.8180577 0.814923 0.64702696 -0.21630776 -0.07147761 -1.298526 1.8758875 0.33048755 1.1508431 0.75925153 0.65598774 -1.6753047 -0.66053563 1.4829522 0.6698605 0.25487602 1.9930947 -0.0073675434 -0.57283974 -0.84619063 0.36278394 -0.24536325 -1.6103736 -0.17130154 1.5325357 -0.26598474 0.9430871 -1.7318867 0.9019897 0.6100924 1.1328979 -0.72518873 0.082616694 1.707691 1.0924488 0.46680123 -0.60640866
! 0.91773397 0.0042797993 1.035554 1.8251663 -0.884431 -0.6775499 1.5210032 -0.10042003 0.16206178 -0.64810234 0.48661074 -0.9804307 -0.53603595 0.50667346 -0.45130953 0.11467547 0.34262732 0.02398077 0.2219951 0.40862006 0.14501406 0.6156975 -0.6626951 -0.12852159 -0.2758848 1.0395206 -0.6809084 -0.6662069 -0.19164513 0.61965764 -0.23099183 -0.19566849 -0.09965253 0.23616312 0.42133147 -0.49314296 0.8409275 -0.8573122 -0.2574701 -0.57051873 0.0850613 -0.3502646 -0.039405134 -0.8339726 0.81913465 -0.38630512 -0.045918003 0.8516194 -0.037199594 0.0426049 -0.16395912 -0.4943435 0.43890473 -0.43115178 0.2970422 -0.13937806 -0.71864355 0.8450321 0.67226744 -0.55050164 -0.76549995 0.030279744 -0.60874194 -0.012645008 -0.36343756 1.2398525 -1.3746167 0.08251863 -0.082571 0.78152597 0.67281544 -0.041022807 1.1850091 -0.07964391 0.026175648 -0.40202558 0.7736967 0.5120185 0.56391054 0.7237148 0.22528407 -0.27155483 0.24735306 -0.109474614 0.32640082 -0.29685855 -0.6877667 0.45074475 -0.28430617 0.16609555 -0.10075493 0.17087525 -0.24334347 0.8826511 -1.1022583 1.186948 0.48991215 0.17270179 0.6388014 -0.16072033
fd 0.5851286 0.32831296 0.8857278 -1.648378 0.35136747 -2.1701503 1.6645252 0.51318455 -0.021256654 1.1947336 0.021738429 -2.1282601 -1.3802023 0.36618957 -0.25046775 -1.2758806 0.16240339 0.0114222 0.6064324 2.708817 -1.3298465 1.7962414 0.84769654 -0.7028182 0.15850577 -0.90790784 -0.7297786 -1.4321716 -0.51666915 1.9852743 -0.5311089 1.13156 -0.7238748 -0.46199152 0.37863052 -0.26949683 -0.51226944 1.6546985 0.6375829 -0.66240656 0.8250021 1.3121271 -0.45076156 -0.2920327 0.28014362 1.5504444 -0.6016315 1.427246 -0.8739986 -0.23319197 -0.9781571 -0.70328134 -0.34137475 1.142258 0.7358272 -1.2664001 0.68929476 -0.2796177 -0.67795396 0.16635159 0.5275004 -1.2295786 -0.64645666 -0.4145111 -0.22685438 0.09522693 0.1614115 -0.14923398 0.9695375 -0.41772807 0.039963808 -0.11809748 -0.41499045 -0.89399016 -0.43722224 -0.28858832 -0.8823587 0.018173037 -1.3488462 0.26326022 -0.878054 -0.6868303 2.0788546 -0.47378507 1.4290199 0.8092155 -0.28939196 -0.48098144 1.0213166 -1.4051129 -0.17218304 -0.99029803 -1.2988272 0.16592681 -0.9600395 -0.4686242 -0.31162626 0.6987912 -0.45134452 0.5803083
fprintf 1.0301509 1.0928342 1.4502221 -0.13540092 -0.44857112 -2.4565275 2.4378378 0.58449703 -0.6760777 0.6555349 0.52149665 -2.4310346 -0.87344056 0.15499894 -0.7913324 -0.39863724 -0.24956754 0.3584877 0.06370619 3.28608 -1.4264493 1.6051134 0.18073617 -0.78842866 -0.47808114 0.09858217 -0.47344285 -1.415899 -1.3931481 1.7298602 -0.94733185 1.1768246 -1.5953506 -0.41671696 0.0963158 -0.15889506 -0.7751943 0.84613925 0.69015 -0.746089 0.68402916 1.5076433 0.40516323 0.4926493 0.24748152 1.6495073 -0.6592162 1.208358 -0.020046769 -0.6210288 -1.3210709 -0.46932602 0.08571449 1.4589218 0.16637537 -1.2531921 -0.24391007 0.36118114 0.20496419 0.85651404 0.57648224 -1.0542006 -1.1822602 -0.62730587 -0.583202 0.69157326 -1.0659472 0.3355969 1.4070556 -0.55931157 -0.20427701 0.12339719 -0.6678981 -0.92239904 -0.7423248 0.44223613 0.07689508 -0.3157185 -1.317242 0.20810397 -0.5436004 -1.0080602 1.9345397 -0.062394142 1.380953 0.5263741 -0.37254465 -0.40915686 0.5550607 -1.3293802 0.09627194 -0.41560432 -0.93369055 0.4562857 -1.7336688 1.2430683 -0.23380144 0.51942086 0.17145288 -0.0033723607
n 0.08713333 -0.117723964 1.4691912 2.449093 -0.22711383 0.23356175 -1.1305318 -0.4633779 1.0251312 0.0889432 -0.9029095 -2.107916 0.017454319 -1.0736164 0.22245249 -1.49569 -0.40144423 -0.7628325 0.060792338 0.4298762 0.19189541 1.3099391 0.34933427 -0.69908637 1.3827217 0.32112756 0.63807935 -0.3977415 0.27686405 0.6145886 0.6994306 -0.3745186 2.0293467 0.58717936 0.7035608 0.69973165 0.22865188 -0.60560036 0.8701589 -1.3865093 -0.28713918 -0.2661146 -0.91474926 -0.213323 2.2827604 -2.1533644 1.0775671 0.4310322 -0.80959916 -0.28770778 0.85796094 -0.9996365 1.8595833 -0.0948341 0.98928595 0.99439347 0.9503151 0.31321248 -2.159817 -1.0267439 -0.6539696 -0.5291781 0.31796286 -0.5124234 0.86325854 0.32135287 1.2544092 -0.26355493 -1.4965626 2.2113802 -0.8312858 -0.43044508 0.5130801 0.35720688 0.47949603 0.85361993 -0.024673816 1.1113883 1.581596 0.19770867 1.1208179 -0.15909255 -0.7592813 1.2992405 -1.0893784 -1.452324 -1.181983 0.2637033 0.93149084 0.8436776 -0.05701247 2.3470314 0.8195986 0.25841555 0.71137637 -0.5324826 0.9764059 0.633317 0.3183306 -0.06461259
NULL 0.47470018 -0.15662359 1.4774458 1.3834972 -0.39556766 -0.688177 1.7126172 -0.437818 0.20643519 -0.6365505 0.92688364 -0.8807139 -1.1352607 0.6501258 0.28562737 0.100444496 0.45284614 -0.7313595 1.3074983 -0.10173414 -0.086210944 0.6334069 -0.6304484 0.0042851185 -0.81663716 0.40780875 -1.3964646 -0.56891096 0.018954914 0.4437701 0.19228499 -0.29414162 0.2882524 -0.032921873 0.33444554 -0.7481045 0.94933796 -0.7239618 -0.13325025 -0.28776482 0.1322419 -0.93915147 -0.50160897 -1.3836241 0.42229047 0.24232696 -0.20512415 0.8300621 -0.69633317 0.322015 -0.115141295 -0.88677037 -0.41872373 -1.0416832 0.4683127 -0.0166087 -0.7338812 0.4507569 0.9849127 -0.6372659 -0.6386563 0.1815145 -1.0464058 -0.013623408 -1.0067846 1.1155308 -1.1293967 -0.3550599 -0.45818245 1.3583572 1.4818525 0.04740684 1.4001071 -0.104897246 0.53738534 -0.977308 1.1057934 0.4559168 0.4885513 1.0166821 -0.6970221 -0.29483074 0.28556773 -0.60770047 0.27002013 0.69784516 -0.53452307 0.99586135 -0.08896154 0.2846546 -0.2600446 0.10498109 -0.36386383 1.127802 -1.4863986 1.1023097 0.82836586 0.62096447 0.4791875 0.124107935
& 1.3897631 -0.5982698 0.039625324 1.3442125 -0.32207122 1.132004 0.10485755 -1.1554016 -0.19520506 0.7740981 -0.39313522 -1.5709769 0.43288973 -1.079857 -0.7730313 -0.7227141 0.18650796 -0.067146346 0.19732882 -0.10500656 -0.28788546 1.414126 0.5130232 -0.49188414 0.5209434 2.1491451 0.12939893 -0.088154055 -0.35856023 1.6486368 -0.11122376 -0.8604969 0.007653076 0.4024475 2.1368766 0.49345243 0.43749353 -1.3818244 0.37621224 -0.098499216 1.0783828 0.30623442 -0.48320147 -1.0211986 1.9796017 -1.1218249 -0.6989804 1.1285219 -0.23548919 0.35119426 0.35820445 -0.078161396 1.2075522 -1.3464648 0.70616686 -0.078290425 1.4034889 1.2031457 -0.7410164 -1.275497 -0.22875947 -0.3437233 0.4239243 -0.38718832 0.38575765 0.17973045 -0.36402074 -0.62021357 0.20127578 1.6419963 0.5399036 -0.4379261 1.1969912 0.7774459 -0.53318006 -0.32553706 0.8146316 0.8850952 0.3093014 0.41272298 0.354546 -0.062352203 -0.28068677 0.56176746 -0.83488464 -1.3754263 0.1810287 -0.31197247 0.890663 -0.5625512 -0.2539813 0.3415475 -0.25087866 1.065927 0.33373687 -0.29240867 -0.07208655 -0.6353727 -0.045125894 -0.85073787
2 0.7175284 0.1938759 0.5496906 0.647203 -0.37058344 0.1450799 0.7785762 -0.85550815 0.34306493 1.1175061 -0.58948314 -1.578685 -0.09938814 -1.1522973 -0.20002836 -1.199329 0.30356133 -0.16156234 0.032567497 0.13418123 0.11806549 1.4284908 0.9753772 -0.9112394 0.18678461 0.84770656 -0.26517496 0.14335306 -0.3100461 1.538092 -0.66525257 -0.22653773 -0.0455277 0.17704849 1.7984755 0.4463437 -0.28670686 -0.06960913 0.89554614 -0.37629327 0.8376679 0.8106439 -0.3452036 -0.3918859 1.6870754 -1.08087 -0.7964106 0.72689563 0.1921412 0.71524054 0.87544245 -0.28383586 0.31017533 -0.473084 0.24906424 -0.6000112 1.4618802 0.88897556 -0.60362935 -1.0451878 0.069785506 -0.30457535 0.54545355 0.22872563 0.066032164 -0.31971028 0.41733694 -0.92845243 0.83613783 1.8552797 -0.33667767 -0.9913303 0.45828664 0.028448397 0.36381078 -0.24896972 0.38962704 0.8533247 0.3804104 -0.4189769 -0.072571285 -0.12346684 0.38889787 0.34438312 -0.0362276 -1.2444688 0.1983256 -0.49999228 1.2345195 0.020533234 0.07936405 0.8072481 -0.48963824 0.4923937 -0.17015383 0.23292689 -0.33121186 -0.0806306 -0.5282951 -0.24307778
void -0.9333882 -0.82515055 2.0278974 -0.058887295 1.2216274 -0.96564955 -0.13051915 -0.13197108 1.2396352 0.40630266 0.032924224 -1.4919764 -0.9647041 0.48395923 1.4566125 -1.0000619 -0.14398512 -1.9476614 1.2381626 0.47130263 -0.60818505 1.2549776 -0.2697199 -0.4411447 0.59464836 -1.5272096 -0.21854149 -0.6788768 0.100423604 0.8157469 1.0755432 0.7546125 1.5568063 -0.46942604 -0.2888377 0.12528811 0.81923515 0.683792 0.5319498 -1.4690571 -0.45556256 -0.40759593 -1.4170551 -0.5644955 0.51220006 0.42567804 0.49585104 0.5836255 -1.300375 -0.07468156 -0.3049336 -1.2200754 -0.28339615 0.54613066 0.90068257 0.41710734 -0.25995058 -1.060183 -0.53156066 -0.46562782 0.14928468 -0.6412648 -1.0960687 -1.0942587 -1.0087876 0.080415554 0.8876734 -0.0866704 -1.5206226 0.7422411 1.1622455 1.1648092 0.8667271 0.05075884 0.5272 -0.28638288 0.19220561 0.60262513 0.6235574 0.87734157 -0.143126 -0.57735175 0.23723443 -0.28440785 -0.47850338 0.9468926 -1.3792394 0.91227776 -0.33204347 0.107637875 -0.33256373 0.09301071 0.39017177 0.73555535 -0.4192604 -0.7262504 0.6925323 1.2163657 -0.23878786 0.678365
dir -0.6525902 -0.58393943 1.5515034 0.7190628 1.2616928 -0.838494 0.0775659 -0.3603711 0.50687534 -0.7773831 -0.7496973 -1.44842 -1.1573749 0.14724843 0.12456703 -2.3906834 -0.5112849 -0.9403652 -0.69515806 2.0020905 -0.038837485 1.5308398 0.60956186 -0.43465182 1.1663852 -0.39538503 -0.5326421 -0.99748546 1.2874103 0.77522486 -0.8786327 -0.27820072 2.2154992 1.4395493 0.39608347 0.77443093 -0.7832685 -1.1679188 -0.92133224 -2.8898966 -0.6812653 -0.9315887 -0.24138914 -0.0029603287 2.3689365 -0.80042756 0.6622439 0.8102694 -0.56752545 1.0195546 0.19090211 -1.4171984 2.0268269 0.33459926 1.5068021 1.0908301 -0.7231123 0.60964245 -2.2587023 -0.6891528 -0.34680128 -0.7541823 -1.5601265 0.02222326 0.8629184 0.59180665 -0.06720729 1.5888693 -1.2769117 0.40743837 -0.93746614 1.1821923 0.33957303 0.023620414 -1.3009012 0.8480409 0.095446296 0.4834794 1.5299653 1.3101723 0.9817899 -0.83218783 0.20720097 1.1513853 -0.6581358 -0.30515948 -0.40401208 0.782386 -1.0880342 -0.6471534 -0.0051531345 0.13299498 1.7671214 0.3079668 0.3211296 -0.42335215 0.399329 -1.2600627 0.15760568 -0.42987096
8 1.6074502 -0.058214888 0.90146244 2.8821113 -0.53703177 0.99469143 0.89801013 0.054012362 0.30670327 0.84620136 -0.75743294 -1.2952542 1.0682564 -0.865761 -0.42882574 0.111082844 -0.01829478 0.5799279 -0.15189436 0.18993413 0.38837704 0.086771525 0.81708854 -0.44547886 0.30525023 1.2035537 0.6033295 0.3354881 -0.32104978 1.205233 0.8388561 -0.44214913 -0.44616893 0.5544521 0.77733976 1.3437208 -0.014415977 0.1826967 0.41629872 0.047632672 0.7781941 0.9987015 -0.9543281 -1.4442425 1.2394564 -2.2543128 -0.28142217 0.8075825 0.6456625 -0.1969269 0.6675405 -0.81066644 0.030095262 -1.3397161 -0.36967784 -0.67216176 1.2106494 0.15178664 -0.5205585 -0.31031126 -0.43681395 -0.11979057 0.8336081 -0.06585244 -0.7263654 -0.7343441 0.8706112 -1.1009178 0.08424063 1.5821216 -0.28431574 -0.050645873 0.2508057 0.3177854 1.2825603 0.25699914 0.5801554 0.5503313 0.17258981 -0.81608576 0.37760723 0.73438036 -1.6041425 0.11828657 -0.2985282 -1.5870517 -0.44173512 0.34094566 0.5733768 1.2218826 -0.07596044 1.3160995 -0.6977141 -0.03898093 0.12040486 0.5929096 -0.021148333 0.27077085 0.8252411 -0.19541238
ap 0.003058745 0.22805005 1.4298528 0.16943736 2.1080847 -1.062771 1.8802958 0.1819756 1.3163625 1.6475126 0.22332005 -2.2689056 -0.17313512 -0.61608684 -0.4184369 -1.8764545 -0.34034988 -0.8461353 -0.27689797 2.5872054 -0.4741302 2.0242603 1.8852113 -0.625577 -1.2097775 -1.4438047 -2.0543396 -0.3430962 0.94452274 1.8506804 -2.0184226 2.368472 2.671145 0.84237677 -0.34258977 0.37684295 -2.7400355 0.510735 -2.4635904 -2.868532 -0.42283034 0.26510778 -1.7203007 -0.14656729 -0.110091746 0.17728956 -0.6427922 1.1421853 -1.3034446 0.49788603 -0.29290643 0.03212834 0.26275522 1.6074374 1.2696728 -0.049199745 1.2795597 0.8963022 -2.3928823 -0.23640683 0.021412626 -0.87423956 -0.93929106 -1.4526536 0.8161418 -1.4680477 0.9372271 -0.016428083 -0.39571485 0.25155407 -2.2837698 1.4274572 0.21550126 0.10563719 -1.9101381 0.10879323 -0.09267708 0.4314796 0.43057457 0.9956629 -0.8287856 -1.4302433 0.7549481 0.3960147 0.44062728 -0.91754305 0.70322293 0.25766662 -0.064516164 0.974969 -1.1155964 -0.4415513 0.84722835 0.0058491584 -0.42814165 -0.9881 0.2722265 0.29260194 -0.9757144 0.79428834
goto 0.06409961 0.4012154 0.43310666 0.29305926 -0.17119037 -0.97466266 1.6644223 -0.06347568 -1.1777298 -0.6789325 -0.80407864 -0.42917162 -1.7986839 0.8001176 -1.0079186 -1.1573497 -0.48625356 0.6429614 -1.338023 3.2659962 0.1439106 0.39378488 0.4641019 0.10077295 2.0622394 0.3917292 0.13283807 -1.1523834 0.01203947 0.88595337 -0.51204944 -0.38011393 -0.20052177 1.4096044 0.16501781 0.5179756 -0.85507023 -0.20417152 0.22960868 -1.603426 0.35747015 0.76827174 0.7984602 0.16822346 2.2136223 0.027412929 1.0211949 1.415769 0.6823612 0.07271532 -0.6062311 -1.8381748 1.6247225 -0.5372161 0.5116397 -0.38218927 -1.5010669 -0.04337322 -1.2729025 -0.25445217 0.81978744 -0.8112404 -1.7551067 0.91380847 0.606897 0.7706887 -0.69217014 1.7313944 0.36686647 -0.37987208 -0.1218206 1.5237855 -1.1065806 -1.0715897 -1.0957443 0.8156869 0.16884933 -0.03410045 -0.31962755 0.7077621 1.5877421 -0.27231842 -0.44122207 0.93317807 0.109458946 0.27574512 -1.383199 0.8595757 -2.1401348 -2.4163122 0.05631854 -0.9914157 -0.1487954 -0.31961167 -0.5954838 0.036861837 -0.07550895 -1.6514069 0.7090681 -1.2048652
row 0.64419794 0.5134917 0.8827868 1.7311257 -0.9318344 0.1684913 -0.2661069 0.26406756 -0.3184713 -0.30005574 -0.6820667 -0.29091945 -0.5509697 -1.4236087 1.2636852 0.16830555 0.018629309 -0.97401386 0.07193471 0.98513275 0.5928161 -0.28580478 0.3370387 -0.6600458 1.2535938 -1.077501 0.883269 -0.9243971 -0.11914535 -0.03565519 1.82109 0.64863914 -0.05670381 -0.6012854 -1.2515343 0.23905116 -0.78780174 1.3956836 2.1315644 -1.1967546 0.024420844 1.3275115 -0.9186247 0.041105036 -0.15066735 -0.7295268 1.6939099 0.18309446 -0.12312689 -2.1899345 -0.33896106 -1.6737558 -0.65076596 -0.5289896 -0.6589368 0.36313793 -0.26010635 -1.7468781 -0.18629402 0.5286559 -0.012567529 -0.21525222 0.15391073 -0.69790965 -0.9912584 -0.1890741 1.240787 -0.7192313 -0.3975851 1.1989607 0.45780072 0.5485779 -1.344405 -0.7539499 2.2753527 0.20274125 0.82183295 -0.16613568 -0.16837662 -0.5702018 0.52411294 1.087858 -1.9947798 -0.3310164 -0.5081494 -0.3276156 -1.9241682 1.3193315 -1.1296709 0.764932 0.08973053 2.3569846 -0.7506254 -0.527237 -0.8179763 0.7280974 1.2641473 1.8940889 0.6034822 0.25429156
cp 0.79060996 -0.19542423 1.2632984 0.16584691 0.11472301 -0.027498601 1.0042549 -1.5166122 1.0302011 1.3269458 -0.7854754 -2.6136744 -0.9590484 -0.8135751 0.37056017 -2.2969964 0.45530728 -1.9020846 0.5491044 0.9159133 -0.025556177 2.1072836 1.2503314 -0.6946782 0.8849685 0.48133734 -0.50092924 -0.23293178 0.06491958 2.5181599 -0.32733408 -0.54188067 0.39077404 -0.026020348 1.5306621 0.19493112 0.5246297 0.18613623 1.3839322 0.13813011 0.93284607 0.5523782 -0.7729248 -0.22679617 2.3368251 -0.89015085 -0.2367444 0.7452538 -0.007970227 1.2719201 1.1847023 -0.47923958 1.1614169 -0.016564917 0.2617673 0.17102069 1.6065129 0.6587237 -1.7613779 -2.185395 0.31628105 -0.56567526 -0.31005117 0.037786156 0.46998486 0.016733147 0.8087091 -1.0907336 -0.1451425 2.1571808 0.7302817 -0.6449438 1.1999278 0.040574975 0.53947186 -0.4400669 0.3778102 1.0174828 0.5497421 -0.5524246 -0.8787846 -0.061652105 0.3173658 0.4511557 -0.93877774 -0.059516806 0.038258225 0.025546303 1.1584437 -0.10045317 0.33037227 0.90884745 -0.4943029 -0.34627375 0.5223693 -1.1958666 0.23523425 1.07781 -1.2056423 -0.22788239
static -0.9193464 -1.196249 1.7724828 -1.6566423 1.9725411 -0.7841008 -0.9434187 0.7530497 0.8464306 0.5233898 -0.18728556 -0.95138365 -0.5812357 0.29605493 2.0253804 -1.5345556 0.01756812 -1.992883 1.5946678 0.50217813 -1.3806292 1.6063014 0.24252887 -0.78885245 0.1528279 -1.3282545 0.003939647 -0.4852573 -0.044411596 0.9174909 0.28646183 0.43117574 1.910519 -0.4764576 -0.2699533 0.50677747 0.16612539 1.2012571 0.42724845 -2.0757723 0.14560157 0.2983427 -2.025866 -0.6590326 0.6442937 1.1989433 -0.15574826 0.33790597 -1.7737342 0.49809462 -0.27240694 -1.8282166 -0.6218041 0.9536009 1.1286361 -0.041080486 0.4091377 -0.8062355 -0.44498003 -0.37782475 -0.008890199 -1.6055473 -0.76432717 -1.4427508 -1.406139 -0.56484836 1.487124 -0.27592924 -1.7268884 0.6588736 1.0733112 0.84907025 0.4202586 0.30406666 0.6959507 -0.29820773 0.43225342 0.13491006 0.004129526 0.5357318 -0.90552586 -0.46134266 0.9458385 -0.37045094 -0.1747523 0.4034834 -0.907769 0.9930674 0.28124958 0.32255247 -0.87685823 0.15513867 1.0291876 1.4436849 -1.1756363 -0.28892255 0.19438548 1.1493421 -0.5918991 1.1791985
out 0.33431402 -0.8173581 2.2847252 0.9803198 1.03476 0.2917883 1.6814005 -0.30145147 1.0595254 -0.62185067 -1.1249009 0.06052798 -1.2115213 -0.26306966 1.6878883 -0.22064026 0.74034935 -1.3307661 -0.18642996 1.6200656 0.67899406 0.05091034 0.75563705 -0.5817056 1.0026356 -0.8965895 -0.3914027 -0.24261086 1.3939818 1.3788867 0.4351927 -0.051140208 -0.13437775 0.4192878 -0.5901288 1.1337479 0.29215324 0.7803016 0.2907923 -0.85934097 0.08943786 0.57086325 -0.8715844 -0.6398378 0.84095436 -0.910655 0.47017738 0.1390461 1.0886288 0.5552134 0.77057135 -1.821974 -1.4615984 -1.0416129 -0.6141452 -0.09429224 -1.6997727 -1.3565149 0.5465791 -0.64007056 0.57402575 -0.09829534 -1.1809597 0.5538637 -1.9032364 -0.12236286 0.10164683 -0.43145382 -0.69416684 -0.6554412 1.3642683 1.2170341 0.4579395 -0.7665262 2.0390632 -0.16464284 1.0212843 -0.22336093 0.34398043 -0.39504766 -0.33036122 1.1654274 -1.8722714 -0.62382966 -0.49950346 1.0746647 -0.76674813 2.2231302 -2.5473728 0.4656452 0.102336116 0.3336528 -0.3124729 -0.3338106 -0.35981512 0.37073 0.2551278 0.33575997 0.13431592 0.28507647
TIFF -0.7988875 -1.4148806 1.6754788 -1.2991724 2.067421 -0.67098796 -0.39889127 0.4498317 0.8628775 -0.095613986 -0.19789235 -0.11649044 -0.5534699 0.58695316 1.7311319 -1.1260332 0.13743165 -1.4474471 0.912363 1.1290021 -1.0976481 1.1675214 -0.12116758 -0.51800805 0.3960554 -1.0284127 0.16165917 -0.6790464 0.46826172 0.8121735 0.39744937 0.4117301 1.0910695 -0.15577103 -0.14132303 0.77633226 0.5088039 1.063443 -0.03529488 -1.9025657 -0.35743222 -0.0050760424 -1.3664027 -0.64299774 0.7771929 0.78111815 0.03148135 0.47252223 -1.0625033 0.36314303 -0.56565076 -1.8460586 -0.71313936 0.91746825 0.8668249 0.085662305 -0.745177 -0.77126735 0.18321994 -0.15348096 0.2635539 -1.2403631 -1.0904509 -1.0301358 -1.6357408 -0.29011893 0.64633274 0.286021 -1.6795875 -0.39989862 1.1591572 0.9734957 0.29492116 0.24459408 0.48501393 -0.0084176585 0.45257702 -0.2385978 0.031808734 0.669372 -0.3772568 -0.024458388 0.5116968 -0.47334698 -0.285787 0.89254844 -0.9078045 0.9913681 -1.0076065 -0.21331276 -0.26717463 -0.5917646 1.1598065 1.0171654 -0.7902531 -0.042604424 0.14643162 0.43997717 0.097700395 0.50599253
/ 1.0813802 0.048714668 0.31760812 0.9253714 0.00040188173 0.48642483 0.15744017 0.92623806 0.27879784 1.2312143 -0.65777177 -0.67244846 1.2307546 -0.6631509 -0.08857326 0.39685765 0.20239131 0.89961493 -0.0105471 0.34101385 -0.16074616 0.23627137 0.79856855 -0.66691864 -0.064708084 0.6586852 0.9618772 0.35892332 -1.003088 1.0852658 0.34226155 0.18195075 -0.8027011 -0.09629528 0.45643294 1.2627852 -0.32481998 1.428913 0.52720517 -0.1845607 0.9524072 1.7138326 -1.0838089 -0.75896424 0.6147799 -1.2304846 -0.6741051 0.5833434 0.5803099 -0.023189198 0.25960428 -0.4724925 -0.733493 -0.014798442 -0.50178003 -1.2235936 1.2936374 -0.13563971 -0.0574707 0.32719815 0.045420736 -0.5781919 0.8162856 -0.3229106 -1.0946957 -1.0356992 1.7889459 -1.087954 0.4428178 0.77006 -0.49611527 -0.36040443 -0.5721282 0.21280754 1.2660908 0.45417362 -0.11638279 0.084141806 -0.5147593 -1.311588 -0.1379549 0.69499195 -0.8973505 -0.1587479 0.28272766 -1.5384353 -0.3994112 -0.15722917 0.60988426 0.98656917 -0.3256095 1.0181518 -0.48477378 0.1765466 -0.4049046 0.56649715 -0.21733004 0.73320484 0.26698813 0.1766642
&& 1.402256 0.14750715 0.5614415 2.543737 -1.2044705 -0.0830433 0.78032106 0.38890997 -0.33327118 -0.57615364 0.21488622 -0.5725998 -0.202728 0.014354874 -0.23295747 0.09834809 0.037059188 0.25775513 -0.26524192 0.12467972 0.6437321 0.29877397 -0.568869 -0.17521347 0.16930693 1.3987445 0.0050904644 -0.79223204 -0.17072748 0.29738593 -0.21774764 -0.5274099 0.4746022 0.42117274 0.26636624 -0.13067791 0.17367595 -1.0391952 0.19474593 -1.1564076 0.32345784 -0.0015958115 -0.25141197 -0.7411552 0.99059975 -0.86359817 0.2771049 1.1135601 0.057622153 -0.37192726 -0.13560665 -0.7612603 0.7865503 -0.7955891 0.17869626 0.1628031 -0.2906948 0.8980214 0.48891702 -0.45947817 -0.9809705 -0.19959067 0.15187743 -0.051924612 0.19186078 1.1566857 -1.1576151 0.062616125 0.26743963 1.0079019 0.1988972 -0.11181357 0.5375963 0.0154885305 0.26366752 -0.19752844 1.1951472 0.5018666 0.77676034 0.5328641 0.86576694 0.11227315 -0.005856688 0.030596716 0.3352594 -0.6225505 -0.6175 0.42149508 -0.0697445 0.4050701 0.20068222 0.84158593 0.01679678 0.68132925 -0.86098915 1.4192535 0.6478285 -0.16186336 0.86001307 -0.11955971
s -0.13308243 0.23184194 1.479233 1.5505394 -0.8468873 -0.51039046 -0.5126292 -0.016661786 0.7346743 0.3478742 -0.09768802 -1.6555204 -0.5018774 -0.5661801 1.0854743 -0.18903977 -0.17287873 -1.1355218 0.9890704 -0.7413936 0.07854109 0.52702254 -0.5748319 -0.8491044 0.51663 -1.0728542 0.37015834 -0.41744155 -0.5975486 -0.013716603 1.7661048 0.65795636 0.5364568 -0.8661993 -0.19801249 -0.24868545 0.69157654 0.69928515 1.8762267 -0.98089546 -0.16625042 0.13656373 -1.1210798 -0.67677975 0.080593266 -0.39447007 0.7892801 0.20789333 -0.93995494 -1.4444062 0.056661416 -1.0811607 -0.59690547 -0.37954187 0.09695083 -0.08286834 0.62001264 -1.0571907 -0.12057532 -0.050869953 -0.590137 -0.08612782 0.32767403 -1.323756 -0.96831226 0.28745443 0.7410913 -1.0291284 -0.38163605 2.0189006 0.77938753 -0.017852882 0.28405324 -0.071501225 1.8583124 -0.5007137 0.6986929 1.206668 0.583453 0.21134292 0.3188347 -0.4566931 -0.28200623 -0.38222858 -0.22013056 -0.44758943 -1.5911044 0.4072702 0.9587912 1.0044956 -0.13108498 1.7771139 -0.78723264 0.73434585 -0.654136 0.4245242 0.6541494 1.8570342 0.22152361 0.8967674
long 1.2973722 -0.18242225 -0.24227841 -0.26945278 -0.26161742 0.88398147 -1.3666073 0.5041531 -0.6450189 -0.30012244 0.2889463 -1.3871355 0.3612854 -1.0702134 -0.1406148 -0.036575757 0.09768277 -0.74394447 1.228954 0.98801255 -1.4682555 0.8183792 -0.19370931 -0.052416258 -0.14327209 0.46609688 0.15104742 -1.3484879 -0.6859738 0.48590496 1.1581547 -0.22956882 -0.45299104 -0.8517832 -0.7064428 -0.2160936 0.20916064 0.62748885 0.86787045 0.1860606 0.7555029 0.6036107 -1.0565956 -0.6127149 -0.37984967 1.0202177 0.3302157 0.96820027 -2.2792027 -1.706108 -0.8715259 -1.2615614 0.041460946 -0.015158969 0.7745035 0.22951362 1.7562298 0.031800866 -1.33372 0.3286463 -0.7855604 -0.86963403 -0.047395617 -2.4959242 0.2730788 -0.17325315 0.16832457 -1.0207094 -0.7522531 0.8337675 1.1216809 -0.30647466 -0.1722411 1.0722437 0.29550043 -0.04689672 1.0945284 0.51669663 -1.4908746 0.5338398 -1.2538381 -0.19899063 -0.3629199 -0.3584796 -0.058087986 -0.19297959 0.23381579 0.76881933 1.640943 0.2081063 -0.6668242 1.2112422 -0.5882297 0.14744338 -0.63815945 -0.58247274 1.3610845 1.8931099 0.83920366 0.109971866
fip 0.9843003 -0.27584794 0.474415 1.8368006 0.34389484 -0.8492583 1.7158657 0.57815987 0.1501409 -0.017927533 0.7865056 -1.0622629 -0.8737233 0.4637681 -0.6183301 -0.783781 0.2131366 -0.13098128 -0.5219342 0.8086565 0.76685745 0.7381014 -0.05250198 0.09606021 -0.49145237 1.0873173 -1.0915855 -0.124181546 0.8797062 0.36247367 -1.2761011 0.02484781 2.4264927 1.3669232 0.2996506 0.2250894 -1.0002872 -1.6799756 -1.7083565 -2.0175235 -0.087871395 -1.0402253 -0.85057384 -0.38449246 0.9202739 -0.4452297 0.21875493 1.2723074 -0.34923592 0.71161354 -0.4606441 0.038974814 1.7793256 -0.7031799 1.2579314 0.77157605 -0.18933186 1.6241871 -0.7622836 -1.0326784 -1.0036263 -0.6568241 -1.1367722 0.5493504 0.7932747 0.99829173 -0.78523296 0.6984691 -0.9728999 1.0707296 -0.5764493 1.4147531 0.84668577 0.12747943 -1.8726027 -0.19057323 0.9352264 0.043247756 1.3620427 1.3085657 0.6546423 -0.006353482 -0.0120235905 0.33053187 0.7982462 -0.58628905 0.16414581 1.5234554 -1.7134826 0.82486236 -0.48097402 0.16980793 1.2796229 0.6914613 -1.4217521 0.9151263 1.4271114 -0.79915315 0.047909454 -0.5518107
TIFFSetField 0.8438494 -1.0768037 1.5258632 1.0773792 1.3115792 0.5113031 2.0871763 -0.32653785 0.4586003 -0.8776442 -1.0848181 0.20975016 -1.1932046 -0.13167517 0.8062094 -0.3189606 0.5367935 -0.8210979 -0.9549676 2.364006 0.6613902 0.48477376 0.8117902 -0.55646724 1.3139658 0.5034698 -0.285541 -0.6465691 1.8251522 1.7822027 -0.5279624 -0.21320663 0.16622391 1.2168351 0.07426901 1.4406933 -0.41421288 -0.49937424 -0.47474802 -1.8563173 0.46559006 0.4806875 -0.6312319 -0.37047336 1.6846243 -0.768193 0.41321397 0.7260101 1.2608764 0.95263004 0.25053716 -1.9491405 -0.2751314 -1.411206 0.07523439 -0.1509317 -2.2404602 -0.3367592 0.38627464 -1.0354521 0.667846 -0.29587588 -1.5018116 0.9026478 -1.1613076 0.41613004 -0.8679023 0.4458885 -0.59890157 -1.2086458 1.1741031 1.9005878 0.3869826 -0.58919436 0.4686108 0.09722449 1.3067592 -0.4517953 0.29395044 0.31183803 0.21746832 1.2040068 -1.7135185 -0.21202701 -0.631839 0.67312276 -0.47180903 2.4069488 -3.6780543 -0.5844745 0.008785559 -0.40167323 0.29018942 0.09919294 -0.34864596 0.33066684 0.07461793 -1.1598351 0.26390424 -0.38796464
va_arg 0.27703288 0.143045 1.2423005 0.7515596 1.8642708 -0.9005275 1.7684492 0.09970364 1.175483 1.9552811 0.2455288 -2.142248 0.05066077 -0.82389396 -0.5452115 -1.8767565 -0.18010515 -0.63109034 -0.37604663 2.2898657 -0.38218448 2.013287 2.1792939 -0.71811867 -1.2675099 -1.1797764 -1.8084143 -0.17844276 1.0650638 1.83955 -2.124976 2.3092425 2.299831 0.6823127 -0.06744798 0.7191743 -2.9230373 0.39972627 -2.4057398 -2.8045886 -0.3988397 0.2975901 -1.7396201 -0.11367993 0.28188667 -0.33923572 -0.700399 1.3711878 -1.055346 0.4008387 -0.19025946 0.059082374 0.41225478 1.2576407 1.0514783 -0.28506953 1.6681249 1.0123146 -2.3008642 -0.39110017 0.11299316 -0.89723486 -0.8382304 -1.1417698 0.49047482 -1.3590091 1.1785276 -0.4130481 0.13520922 0.7978546 -2.2557547 1.2487539 0.36222434 0.20397492 -1.770268 0.32731918 0.11210428 0.25117388 0.59368706 0.847422 -0.56022257 -1.218281 0.6999833 0.46998143 0.45619163 -1.271331 0.97740453 0.2701599 0.028384633 1.2826802 -1.005546 -0.025769072 0.7628625 -0.15979226 -0.30449596 -0.54842865 0.29040438 0.3844956 -0.8018396 0.5568217
in 0.14439411 -0.56064224 1.7001442 0.29906508 0.5652773 -0.18281068 1.1975256 0.118989706 0.4906799 -0.42858166 -0.4762273 0.09091485 -1.0938648 0.14284389 1.4017681 0.15705693 0.56947345 -0.90260464 0.47182027 1.0925834 0.07274543 0.10175521 0.12892742 -0.36395538 0.5643461 -0.68283045 -0.13027622 -0.45891988 0.3324949 0.74222255 0.72173256 0.1272773 -0.3355463 -0.048069365 -0.44170922 0.53749424 0.42286244 1.0435696 0.6715197 -0.61831534 0.1938669 0.59785163 -0.7636807 -0.7231947 0.2688865 0.17973831 0.21479096 0.22841372 0.4286042 0.13278852 0.11094257 -1.4494821 -1.5779421 -0.533388 -0.3854204 -0.33940712 -1.2416153 -1.2090312 0.94175017 -0.08903143 0.40006638 -0.32580322 -1.0586812 0.16827026 -2.0085182 0.064881444 0.14695503 -0.30996665 -0.609253 -0.27247286 1.5281425 0.7646421 0.06043015 -0.588815 1.6824613 -0.32153544 0.8368742 -0.25763285 -0.20548148 -0.22718371 -0.46212807 0.712485 -0.91031677 -0.7784577 -0.044032097 1.105388 -0.9889554 1.5326896 -1.637542 0.05295709 0.0069398414 -0.076413654 -0.36215755 0.29767224 -0.90787107 0.569129 0.24035405 0.63126624 0.18824144 0.21920098
3 1.1784186 0.16149735 0.5642946 1.1446044 -0.7153489 0.37204218 0.7488305 -0.85754645 0.12449324 0.9416704 -0.4508326 -1.6061449 -0.12734732 -1.2269325 -0.17659858 -0.825141 0.391235 -0.3480281 0.36257955 0.023774074 0.031310007 1.263491 0.78551495 -0.8308164 0.2393142 1.2244709 -0.15371315 -0.00052686944 -0.54155123 1.5242016 -0.20215054 -0.41938126 -0.2503171 -0.011371949 1.6700144 0.2827656 0.072497725 -0.097695716 1.2900544 0.030731976 1.0659114 0.84435797 -0.54763013 -0.6286786 1.5589296 -1.0428587 -0.54754084 0.75837845 0.053039186 0.2708202 0.8023889 -0.36187565 0.25024366 -0.8447806 0.11143883 -0.49330184 1.5260137 0.677664 -0.39586654 -1.1056349 -0.08504569 -0.39173853 0.5866032 0.04938886 -0.122647405 -0.06307314 0.35122055 -1.1642005 0.57579654 2.0795453 0.24214225 -1.0996131 0.47164398 0.035351153 0.75053877 -0.49592745 0.6561187 0.7670279 0.1747304 -0.46408212 -0.22867589 0.14628601 0.08861823 0.17946744 -0.1395639 -1.1139772 -0.063121736 -0.233309 1.3080175 0.15138853 0.016721912 1.1035758 -0.7330816 0.57114863 -0.28189948 0.31660798 0.0049901153 0.4336232 -0.37185228 -0.25077564
dp 0.25131148 -0.67675614 1.4079766 1.8482409 0.8579286 -0.17024046 0.6332217 -0.3529209 0.6643448 -0.8242288 -0.5112981 -1.3128986 -0.75531614 -0.27200478 0.007213444 -1.5980558 -0.12814382 -0.8077125 -0.5812691 1.6096731 0.2990568 1.0398976 0.41464558 -0.31776136 0.9954183 0.35913143 -0.6429777 -0.5972756 1.6614299 0.9035287 -0.5279721 -0.32897192 2.0434093 1.4343797 0.30132845 0.80112475 -0.5554493 -1.5024571 -0.9784526 -2.262625 -0.44483802 -0.9939514 -0.63500065 -0.31647778 1.9613351 -1.2780082 0.67089975 0.62083983 -0.24006309 0.63453734 0.26067194 -0.9247494 1.7750481 -0.44793287 1.3958082 1.093603 -0.8875945 0.9319898 -1.456772 -0.9732275 -0.5509878 -0.30760252 -1.151385 0.119678505 0.7008474 0.727881 -0.45389265 0.84894925 -1.5501463 0.40009737 -0.46665907 1.1404859 0.9212668 0.21883747 -0.8992103 0.42532012 0.5157395 0.3025994 1.5730541 1.2308223 0.8107514 -0.15714668 -0.5491658 0.8657903 -0.6952799 -0.3510535 -0.22815382 1.3607558 -1.4201543 0.15750138 -0.09575201 0.5768334 1.4204806 0.3543952 0.20296493 -0.24373493 0.68789744 -1.0090576 0.25779182 -0.27475107
v -0.75624204 0.38506934 0.8689411 0.2676356 0.36713576 -0.7847204 0.45843506 -0.5061646 0.8009548 0.7941109 -0.54959714 -1.4739873 -0.6556206 -0.6709953 0.029383335 -1.8791753 -0.26466498 -0.51300454 -0.60763144 0.7242351 0.38259354 1.3296748 1.1962245 -0.81637985 0.2347681 -0.86537 -0.90226424 -0.1759889 0.77082556 0.7860347 -1.1968232 0.5089391 1.6097449 0.5371713 0.7442608 0.30144653 -1.4227533 -0.25445974 -0.2821805 -1.9304819 -0.2692897 -0.10808356 -0.052582618 0.3316614 1.3983493 -1.0430787 -0.18278407 0.422873 -0.08192981 0.7855746 0.6528676 -0.32210976 0.8284828 0.43178886 0.70276475 0.0990885 0.63282204 0.6200682 -1.5653465 -0.6692158 0.048766255 -0.14607954 0.010331718 0.20575608 0.7353194 -0.4287753 0.60594374 0.14815857 0.6068461 1.3404034 -1.6833972 0.24075364 0.15917261 -0.25794762 -0.5559265 0.27132007 -0.1669706 0.837781 1.2537152 0.3843827 0.6068054 -0.9019373 0.7920621 0.72622657 -0.075248115 -1.0036852 0.16199869 -0.40536222 0.4351324 0.04971427 0.08766365 0.6897218 0.3500974 0.05254954 0.10984632 -0.028784845 -0.30044562 -0.66662544 -0.6982392 0.1911213
buf -0.5693281 -0.11605115 1.2508748 -0.14209221 -0.23208436 -0.55649906 -0.28676486 -0.4718786 0.5399617 0.11266494 -0.24569824 -1.2282584 -0.6451119 -0.3923745 1.1455604 -0.57839864 0.04584026 -1.4807183 0.9886233 0.09068902 -0.3544601 0.78187376 -0.04376007 -0.58694947 0.6062624 -1.2015042 -0.10636846 -0.6309344 -0.16780971 0.6181033 1.3175766 0.116519056 -0.02379137 -0.8908223 -0.047602437 -0.26740485 0.60418564 0.90784216 1.551964 -0.32147032 0.11289342 0.28555363 -0.688663 -0.513482 0.4581707 -0.003434689 0.3721538 0.40545574 -0.7882553 -0.57042366 0.08614084 -1.3692986 -0.5445496 -0.06711256 0.21372205 -0.0735256 0.3059732 -0.9444901 -0.26512972 -0.13009399 -0.052644357 -0.07811246 -0.11931482 -0.77152824 -0.9919929 -0.15434103 0.71190053 -0.68478906 -0.21749602 1.1618738 0.9631155 -0.049768634 0.3866062 -0.1508682 1.3385705 -0.41866046 0.22957122 0.59562534 0.07118645 0.071481414 -0.30389482 -0.2268472 0.117477015 -0.46038795 -0.43136278 0.47389895 -0.9321439 0.16542192 0.7902185 0.035105966 0.05452764 0.8867271 -0.78797895 0.19289553 -0.29737535 -0.14265335 0.29799867 1.3447053 -0.13306819 0.41012838
tag -0.4755255 -0.38900942 0.631808 -1.239229 1.4181359 -1.1576896 0.4077655 0.99586636 0.046820987 -0.47971246 0.004262457 -0.09927036 -0.9518517 0.8308724 0.28966656 -1.1700268 -0.14520821 -0.3852139 -0.33400163 1.9944752 -0.5855768 0.70401573 0.21953526 -0.10922836 0.097526535 -0.7231308 -0.5248103 -0.8001367 0.58485186 0.38835642 -1.0399407 0.32567513 1.3658171 0.6841932 -0.6440707 0.3685777 -1.1338497 0.3534172 -1.1284605 -2.176049 -0.3373174 -0.08324311 -0.42726672 0.22882128 0.49955642 1.0266395 0.18057539 0.6275537 -0.66812927 0.5480741 -0.7475687 -1.0889082 0.42096558 1.1102962 1.0047635 0.14659594 -0.60584366 0.26997358 -0.81169164 0.11878006 -0.09297919 -1.2321174 -1.4151219 -0.22256099 -0.048212934 0.14228235 0.072725944 1.1472518 -0.75900805 -0.58913654 -0.42081946 1.4085639 -0.465242 -0.26548263 -1.0700366 0.38816935 0.15308058 -0.34729812 -0.05604223 0.89561075 -0.09778576 -0.4900775 0.80845267 0.24405067 0.6627051 0.24595709 -0.15909763 1.019042 -1.2745465 -0.40571192 -0.4684236 -0.7511654 1.1606631 0.32840768 -1.115853 0.16966133 0.22525103 -0.45321995 0.00884211 0.15373008
bps 1.1070772 -0.13834555 1.3488714 2.6881592 0.2593447 0.4735181 0.7557742 1.0463237 0.92475474 0.9338988 -0.7086049 -0.51976925 1.0928757 -0.60357827 0.28741637 0.4909149 0.024852548 0.35674685 -0.30101764 0.64002043 0.49954212 -0.3362802 0.7479416 -0.5037162 -0.03122758 -0.057312805 0.67965585 0.39236316 -0.10038109 0.8955412 0.9425207 0.5574177 0.16156809 0.3069504 -0.4420292 1.5299217 -0.6405909 1.3574957 -0.23470852 -0.7681102 0.08863746 1.0844167 -1.6223015 -1.205939 0.113269135 -2.0401347 0.13198404 0.405168 0.67906827 -0.38330346 0.48517117 -0.6886122 -0.8637897 -0.22794601 -0.73203844 -0.5676218 0.6125202 -0.67260194 -0.3053283 0.4545593 -0.380787 -0.47432163 0.4551582 -0.41941324 -1.5582981 -1.2521325 1.935174 -0.9338279 -0.5710204 0.7408176 -0.7393668 0.69680387 -0.40315345 0.10463506 1.6771328 0.40205705 0.3544357 -0.028896552 0.26596954 -1.089242 0.28212062 0.88245595 -1.8286182 -0.24362569 0.05482882 -1.3536766 -0.8811767 0.71339613 -0.5292628 2.141003 -0.32329863 1.2049435 -0.00045179622 -0.368811 -0.12710509 0.732862 0.2501879 1.0187242 0.64196974 0.3754515
|| 1.3769509 -0.010874877 0.7179863 2.3558733 -0.92155594 -0.1684604 1.3208467 0.37979436 -0.3234044 -0.33018798 0.3418992 -0.43665895 -0.31848297 -0.037919596 -0.051910043 0.22070989 0.3007433 0.18853717 0.06000372 -0.10008032 0.7101483 0.30518103 -0.36988276 -0.2613892 -0.23637727 1.3739126 -0.27043784 -0.35516903 -0.16122234 0.40714368 -0.3891982 -0.49586123 0.45116043 0.39276963 0.3928136 0.059597418 0.08074161 -0.84979737 0.05059856 -0.9910046 0.55500966 0.057811655 -0.52250576 -0.9303063 0.79869705 -0.7156729 -0.14756514 0.8958096 0.23767048 0.12705037 0.031189155 -0.62237835 0.21808632 -1.109553 0.0004530023 -0.067009985 -0.35442734 0.7990894 0.99969715 -0.48890615 -0.788331 -0.18159331 -0.07063299 0.3564531 -0.35258302 0.88965756 -0.91145396 -0.1657504 0.10843154 0.8443874 0.40777346 -0.21132702 0.6044832 -0.042661242 0.43262172 -0.50058836 1.2123575 0.18729419 0.7320493 0.2867858 0.3973753 0.36218718 -0.024576932 -0.13622274 0.570088 -0.4174054 -0.25416553 0.5734114 -0.36878935 0.59107536 0.0153053 0.5652708 0.14208376 0.83881676 -1.1683105 1.5663816 0.64981794 -0.2442751 0.5434145 -0.111836374
buffer 0.7647594 -0.28121787 -0.04707716 0.346088 -0.645778 0.4062967 0.7836486 -1.4979948 -0.2982228 0.106166996 0.17824005 -1.1949613 -0.4479789 -0.62119216 -0.56300795 0.4267905 0.49388406 -0.4560794 0.86484057 -0.050310586 -0.6734737 0.80189943 -0.06528845 -0.16905798 0.13277826 1.0933013 -0.5324568 -0.38165274 -0.40754116 1.0550969 0.8827984 -0.06718588 -1.5295452 -0.52810556 1.3557096 -0.39281544 0.53794444 -0.48975843 1.0771345 0.87581396 1.2160944 0.3502234 -0.16851419 -0.9894324 0.80795056 0.097886406 -0.48333484 0.82235855 -0.151557 -0.26348078 -0.14219691 -0.31803387 -0.44622365 -1.7108487 0.27274135 -0.6088478 0.50747555 0.110462196 0.20897178 -0.45076945 0.08073971 0.20674653 -0.4391567 -0.2028829 -0.97772497 0.4691017 -0.18740484 -0.9396557 0.5603049 1.5846095 1.6373124 -0.010810231 0.83580816 0.056238655 0.34410587 -1.0316435 0.84398 0.6500413 -0.6329765 0.28684908 -0.67477936 -0.01169012 -0.7179925 -0.64744353 -0.49041888 -0.36044216 -0.24210146 0.31924492 0.006396333 -0.74800336 -0.30699036 0.10560239 -1.5706692 1.162061 -0.503644 0.07675229 0.30885395 0.69399875 -0.07566804 -0.9692919
TIFFError 2.036794 -0.09485525 0.5655499 1.1742316 -0.5157084 -0.31133506 2.200311 0.63665503 -1.11246 -0.25506508 0.5498936 -0.2570129 -0.7690729 0.34144762 -0.28146583 1.215082 0.49581486 0.39809132 0.5607204 1.4963804 -0.73398894 0.0807965 -0.3883272 -0.14211339 -0.38488773 1.5549523 0.022892004 -1.0606428 -1.3720362 0.97354853 0.24804439 0.17811465 -1.760781 -0.30388206 -0.16113637 -0.08655101 0.11617745 0.5169626 0.5162175 -0.25570628 1.1308492 1.0655805 -0.20844862 -0.8412272 -0.2990525 1.0686446 -0.40990973 0.8173086 0.29826286 -0.6406799 -1.0800469 -0.6240737 -1.1316727 -0.57939434 -0.55210394 -0.7219532 -1.0417869 -0.36274672 1.888175 0.65151656 0.14737938 -0.76522714 -1.0517161 -0.052498218 -1.7463558 0.8932482 -0.96707 0.09347843 0.29949775 -0.30600625 1.7125323 0.38881606 -0.45243263 -0.48148718 0.63717 -0.48488334 1.244529 -0.7685408 -1.3911767 -0.017824117 -0.6630325 0.5125952 -0.25437173 -0.8259125 0.78387654 0.3805189 -0.8781732 0.9001652 -1.4861836 -0.55643594 -0.3040194 -0.6928374 -0.68656707 1.0061889 -2.0083776 1.5768442 0.5161767 0.5215848 0.790181 -0.37130064
data -0.23341115 0.023605563 0.67249703 0.60232484 0.14522976 -0.7850127 1.103201 -0.31896612 0.39461654 -0.03561838 0.26492783 -1.0536821 -0.91259694 0.49469635 -0.13832675 -0.2766046 -0.23064798 -0.73000705 0.14653996 1.2352823 0.07319474 0.29528952 0.16316204 0.097219974 0.42092153 -0.82425296 -0.744008 -0.8733674 0.5507334 0.53196 0.7914262 0.8086006 0.61770445 0.07039526 -0.7354737 -0.34908003 -0.3173681 0.22523654 -0.28296065 -0.5162973 -0.38008362 -0.5228939 0.039891664 -0.3214122 0.07278383 0.0014249693 0.82571965 0.7113876 -0.5722084 -0.5496913 -0.49093503 -0.84764487 0.2503351 -0.09061804 0.6183089 0.33790028 -0.4963996 -0.5718726 -0.9179594 0.06251616 -0.008581693 -0.011484886 -1.0165167 0.06749929 -0.24172264 0.16371813 0.23784524 0.417339 -0.49545345 0.6985686 0.09376384 1.4851522 0.18432517 -0.3523111 -0.42245936 0.032889407 0.029083386 0.1342689 0.13729684 0.68194413 0.31324035 -0.2614358 -0.4964689 -0.22186205 0.12420101 0.5681186 -1.1212867 0.88306415 -1.0467108 0.093144976 -0.20412757 -0.14804164 -0.55632555 -0.33033445 -0.2990432 -0.25447798 0.7097123 0.58408684 0.35291895 -0.3066954
_TIFFfree 0.27985656 -0.08333259 1.1421273 1.5488662 -0.5550482 -0.41357708 1.4242595 -1.0784006 0.33326024 0.014350438 0.15549445 -1.8672124 -1.2580605 -0.037591245 -0.22777273 -0.01819394 0.0934624 -1.1918012 0.440093 0.97106206 -0.085406005 0.8083335 -0.13791734 -0.11045241 0.78459334 -0.18002503 -0.8630708 -1.2525771 0.1446482 1.1598122 1.4475878 0.34361905 -0.21033077 -0.34075618 0.09551336 -0.52018076 0.38312516 -0.24417283 0.64018553 -0.30940786 0.23484991 -0.38075754 -0.117536545 -0.797588 0.5984987 -0.40532443 0.64592427 1.2058148 -0.44817322 -0.7554976 -0.38616538 -0.96440876 0.20331238 -0.9931035 0.6072135 0.19691432 -0.5205237 -0.6118284 -0.57140315 -0.35261878 -0.061284963 0.29935917 -0.9514459 -0.39300233 -0.52329314 0.6436502 -0.36910504 0.03624678 -0.048082154 1.2835746 1.1893098 1.253287 0.91098416 -0.2575065 0.032490484 -0.41762143 0.5865119 0.86206263 0.09322278 0.9300359 0.3429474 -0.42951956 -0.8380292 -0.35190678 -0.61145604 0.35914803 -1.3111084 0.8010872 -0.89653283 -0.46592858 -0.03855723 0.1273381 -1.2926491 0.16221793 -0.34845406 -0.26731366 0.85806096 0.709187 0.33618388 -0.5220112
stderr 1.144229 0.27136096 1.2067401 -0.428637 -0.1416667 -2.2865558 2.2097173 1.4916168 -0.71173966 0.30924898 0.13073981 -0.9682823 -1.6040776 0.74608713 0.14043689 0.035066623 0.4859119 0.58876497 0.40349326 2.968924 -0.96642566 0.9936947 0.20524707 -0.68152034 -0.039066844 -0.31961524 -0.28123975 -1.6803846 -1.2516729 1.5954127 -0.36881545 0.94363666 -1.4409785 -0.4840216 -0.13267753 -0.2071319 -0.5488642 1.8943875 0.73557645 -1.5810176 0.93326616 1.7235218 -0.5398696 -0.64545214 -0.019390907 1.4499465 -0.5135082 1.5393438 -0.10464311 -0.6666738 -1.5427946 -1.2856499 -1.285606 0.82227105 2.15495e-05 -1.4735334 -0.88533086 -0.703378 1.3765016 0.8240108 0.3681837 -1.425594 -1.1003137 -0.22984676 -1.6973348 0.89028996 -0.32959437 0.35673818 1.0288603 -1.0537541 0.76925427 0.06696019 -0.94052196 -1.3467699 0.47871098 -0.2715151 -0.1551641 -0.74286985 -1.4987543 0.14081602 -0.5083516 -0.055345085 1.5016344 -0.93838567 1.744152 0.6728644 -1.1310047 0.034542486 -0.54574764 -1.3010345 -0.20137948 -0.9530936 -1.0033898 0.7485558 -2.3097522 1.2927306 -0.06807173 0.6366983 0.31188273 0.58827573
sizeof -0.16709095 -0.41177467 0.9530177 0.8365727 0.71080667 0.35344505 -0.6904184 0.014402301 1.1576468 0.15087372 -0.11519023 -1.4582027 0.5138061 -0.4058613 0.2318557 -0.59018195 0.063244924 -0.77016175 0.71481925 0.117300406 -0.39745635 1.1390867 0.21473093 -0.26656535 -0.14819822 -0.34286305 -0.3694263 -0.21637641 0.38787606 0.55316114 0.3913251 0.104522645 1.2308363 -0.016013036 -0.20421226 0.2938507 0.17587481 0.018524436 -0.6736836 -0.86697567 -0.277285 -0.5124992 -1.3530321 -0.60351205 0.48520535 -0.628699 0.06471505 0.4141739 -1.2453004 0.11651605 0.2780625 -0.68891895 0.39998806 0.19045074 0.9169242 0.3347186 0.7537751 0.38637096 -1.3374826 -0.29705104 -0.5324522 -0.025512915 -0.292644 -1.1741216 0.23816447 -0.3148785 0.88678956 -0.5964538 -1.2224627 0.809518 -0.1912842 -0.0200538 1.0539922 0.94745713 0.02789622 0.39860195 -0.059508935 0.7461816 0.65207845 0.54293096 -0.4484731 -0.4370258 -0.52511483 0.28337696 -0.5895013 -0.6267375 0.07659142 0.5289002 0.7586573 1.1912957 -0.5905199 1.0195552 0.48473606 0.1810503 0.26687157 -0.9599298 0.8655113 0.8419992 0.20498823 0.5034365
4 0.76560855 0.09371815 0.7220442 1.3858027 -0.5477144 0.086787835 0.58032495 -0.7177026 0.44775966 0.65033275 -0.37760437 -1.5240685 -0.18250594 -0.5119678 -0.15137994 -0.75366527 0.08170074 -0.2751006 0.1426839 0.10261835 0.27863273 1.096305 0.42702875 -0.5212477 0.50095546 1.0038991 0.08070716 -0.13530746 -0.29677418 1.2675837 -0.12641774 -0.45854038 0.32324657 0.19889787 1.2013782 0.26595595 0.4158574 -0.43422186 0.88180035 -0.008727478 0.58059704 0.31412286 -0.30771196 -0.41843125 1.756224 -1.244599 -0.07808923 0.72881585 0.030354533 0.4403007 0.6730473 -0.5189863 0.8552388 -0.62709534 0.20093663 -0.072487794 0.9157649 0.57945573 -0.6613734 -1.1148192 -0.14488098 -0.27180398 0.30504137 0.36511266 0.18513505 0.32796067 0.32046127 -0.6760212 0.070718504 1.8489648 0.026351852 -0.6910276 0.6621621 -0.06414786 0.47326863 -0.04851747 0.30615795 0.71405125 0.6863352 -0.24279192 0.18959087 0.12630264 -0.10017458 0.49185973 -0.19118686 -0.7980027 -0.47234812 -0.051486753 0.8797486 0.28196865 0.06348414 1.0908847 -0.33738667 0.25221086 -0.053496536 0.15500177 0.2164901 0.3600611 -0.060208786 -0.3045387
count -0.53997964 -0.08036767 0.743263 0.16660237 0.2979837 -0.7751735 -0.15316202 0.54642147 0.50612783 -0.1850044 -0.34358865 -0.46365112 -0.2579416 0.11442098 0.20279238 -0.94940645 -0.28656045 -0.26317337 -0.35314474 0.78552306 -0.047008716 0.42248204 0.11439282 -0.28791192 0.38721594 -0.48132396 -0.114496395 -0.30530012 0.36921033 0.2008609 -0.31846488 0.036176547 1.2314029 0.4914297 -0.10304424 0.35207048 -0.64313215 0.18608703 -0.26668277 -1.5372083 -0.39663774 -0.10359104 -0.39484203 -0.046314716 0.78863424 -0.45447192 0.30215073 0.21619669 -0.22418188 0.22091079 0.13332196 -0.6936792 0.5398749 0.6622715 0.584792 0.22824898 -0.0011764468 0.19446468 -0.79317063 -0.020627774 -0.48950967 -0.6398273 -0.22993463 -0.041332968 -0.053652097 -0.07329596 0.60757494 0.48564035 -0.5706224 0.39193237 -0.8665457 0.4164934 -0.16292943 -0.09645113 -0.1287502 0.24034218 -0.09891476 0.24802358 0.71355236 0.24962263 0.48123875 -0.34607455 0.46952638 0.39033478 0.24046095 -0.5691867 -0.42154336 0.1678711 -0.09292937 0.3191846 -0.07474277 0.34512427 0.8626262 0.24863306 -0.3243386 0.26580185 0.025555322 -0.18196265 -0.053034622 0.21714686
output 1.3818401 -0.28751597 -0.20001787 1.0024799 -0.20022598 0.67039955 1.704682 -1.419098 -0.70323676 -0.03839392 -0.17133096 -0.42846197 -0.8713893 -0.49039584 -0.83452487 0.91468793 0.63886565 0.5081117 -0.19067049 0.9661723 0.037522115 0.4901729 0.35564655 -0.2602197 0.6438871 1.7254936 -0.18992902 -0.21671444 0.14514503 1.4818105 0.1067444 0.14755236 -1.745899 0.37122947 1.456097 0.4204302 -0.1482962 -0.9517003 0.611034 0.3074617 1.5537313 0.82558376 0.052624527 -0.5313271 1.4545215 -0.47282755 -0.2712811 1.0398806 1.1363211 0.103944324 -0.31162843 -0.5087973 -0.45191792 -2.5648942 -0.006673609 -0.95989805 -0.8369327 -0.004038758 0.65757084 -0.64859873 0.78625816 0.14353028 -0.99841946 0.87750226 -1.0859234 1.0647249 -0.41433933 -0.5399299 0.8486869 0.62913597 1.5592418 0.84231114 0.27706447 -0.6302011 0.09862008 -0.6506962 0.98399466 0.12599856 -0.6265876 0.15448542 -0.11649002 0.7822614 -1.9861751 -0.37178093 -0.35487002 -0.6062879 -0.5493359 1.2739127 -2.3335352 -1.1974556 -0.4560557 -0.039481133 -1.4289683 1.2000927 -0.7696708 0.5461026 0.26347578 -0.31262553 0.040063743 -1.3937677
j 0.37735698 0.7154066 0.14140324 0.7915491 -1.1219409 -0.074519694 -0.2249393 0.001460777 0.07143536 1.1137288 -0.39003527 -1.077132 0.09318386 -1.4581639 0.14975725 -0.30928415 0.41927782 0.042812426 0.19411351 -0.25955683 0.20831317 0.7882513 0.69288385 -1.1523762 0.10180984 0.39795437 0.26690984 0.03713649 -0.68960255 0.47807822 0.13715938 0.25584596 -0.08301517 -0.57901275 1.1030831 0.24475372 -0.8082983 0.71170056 1.6783139 -0.6788386 0.76768655 1.1163158 -0.6309501 -0.19993085 0.9470331 -1.1421394 -0.1950016 0.3800982 0.06922039 -0.6224167 0.4507292 -0.3460235 -0.32814986 -0.4062269 -0.029412566 -0.72305495 1.4836822 -0.017370712 -0.1432275 -0.2565902 -0.09895564 -0.5385514 1.1891696 -0.082417235 -0.62989753 -0.2817351 1.3530558 -1.2003236 0.90549165 2.3803334 -0.503227 -1.0416743 -0.7318631 -0.18973628 1.1539868 -0.20588474 0.3565755 0.56606597 0.11479617 -0.7486768 0.4025098 0.34134403 -0.041208517 0.009178787 0.3666801 -1.7809253 -0.7116652 -0.43108073 1.1392149 0.58140254 -0.055520914 2.051448 -0.7839247 0.8648641 -1.0453001 1.1351215 0.10176012 0.8202883 -0.34827226 0.13857813
bad 0.32202289 0.14286162 0.7731246 0.5296726 0.2904466 -0.97405714 1.3913577 -0.5642413 -0.52119803 -0.029485794 -0.90836996 -0.95379055 -1.5395274 0.41097406 -0.45009744 -1.4309503 -0.5327235 0.11487163 -1.308588 2.8215213 0.39240536 0.83472216 0.67282856 -0.17215087 2.0036356 -0.11412296 0.2468628 -1.2758181 0.46536127 1.6187309 -0.3195206 0.17098863 0.10562641 1.2019756 0.29252908 0.6045361 -0.8514413 -0.41875222 0.37526295 -1.3189396 0.2600472 0.6357064 0.71468204 0.29279032 2.2055397 -0.5277916 0.7800332 1.4748814 0.41818294 0.27737546 -0.5351137 -1.5137405 1.4562106 -0.5145057 0.33604664 0.15816642 -0.87879634 -0.29362586 -1.8755587 -0.31225333 0.71604884 -0.54753315 -1.4642582 0.79319835 0.6255069 0.54875916 -0.2863684 1.5265002 0.2621541 0.099213675 -0.26620817 1.6516443 -0.6565243 -1.0961306 -0.8549099 0.7471529 -0.0784914 0.09839342 0.010108686 0.6637596 1.2557235 -0.17199607 -0.6108785 0.94040513 -0.20163672 0.27990133 -1.3675476 0.65124893 -1.9854429 -1.7718674 0.36029604 -0.5679537 -0.17865352 -0.7730762 0.20973092 -0.048535716 -0.096872665 -1.0265125 0.4254842 -1.2161937
const -0.7413096 -0.8745835 1.1128038 -1.8441314 1.805522 -0.7746958 -0.5150457 0.40964413 0.5776285 0.739918 0.1763136 -0.94874287 -0.45525578 0.4148897 1.4496577 -1.3676974 0.1031467 -1.7620374 1.51532 0.223009 -1.190364 1.6142014 0.28991076 -0.70779 -0.42561853 -1.0222257 -0.336207 -0.25381872 -0.36401796 0.8013669 -0.26038745 0.5894124 1.4533541 -0.5181881 -0.016839238 0.19746357 0.09887032 0.99017185 0.112356514 -1.5235538 0.23901868 0.3864589 -1.8076736 -0.4708603 0.31064084 1.3856682 -0.4459181 0.4627173 -1.6348568 0.7424404 -0.37882915 -1.1558889 -0.53239846 0.9008445 0.87383217 -0.292943 0.9544534 -0.3398551 -0.37935445 -0.40958694 0.053753532 -1.2989975 -0.79176927 -1.2442392 -0.9740474 -0.50658584 1.1939554 -0.44765356 -1.1522003 0.8927293 0.85944337 0.4979827 0.31115508 0.26307938 0.2878 -0.46056205 0.33631378 0.13685827 -0.2643255 0.50176966 -1.3854456 -0.5178975 1.0534028 -0.34006056 0.05946592 0.22891286 -0.34217963 0.69648296 0.49736083 0.35375994 -0.9634595 -0.04066924 0.7077145 1.2603066 -1.3364818 -0.14946222 0.3739186 1.2129754 -0.65235496 0.9059569
col 0.80966437 0.37893215 0.98883843 2.4352763 -0.8300925 0.2301274 -0.077805825 0.6384774 0.083899304 0.39464518 -0.53662604 -0.44505337 0.22966167 -1.2939304 0.9716185 0.37527704 0.058149006 -0.43098485 0.12774901 0.29015052 0.7274162 -0.04927898 0.40109769 -0.7744269 0.5405282 -0.40981144 0.84732646 -0.35207075 -0.43586 0.3298183 1.3956693 0.54866487 0.33654368 -0.39164135 -0.6921714 0.7052658 -0.8918872 1.2603382 1.5149077 -1.3362018 0.2054037 1.2990471 -1.3951937 -0.4677087 0.121716075 -1.5455709 0.9699027 0.36361387 0.06969947 -1.5148541 0.007827395 -1.3588508 -0.7047732 -0.5544178 -0.66825044 -0.04436778 0.35318562 -1.1291043 0.049666278 0.36678255 -0.34512413 -0.38984728 0.5531783 -0.70615125 -1.3072155 -0.48369643 1.7597773 -1.1041716 -0.30076295 1.7450428 -0.095713206 0.28545144 -0.9265282 -0.36102635 2.2244601 0.05471242 0.8577888 0.06020588 0.29598382 -0.77309376 0.52267325 1.0538932 -1.7518336 -0.27149206 -0.22009607 -1.2703218 -1.6188642 0.8601658 -0.5356251 1.5375334 -0.2041086 2.4499722 -0.3468105 -0.021079905 -1.0032388 1.1644387 0.9414718 1.6209016 0.57474035 0.42264614
module 0.40735087 -0.67318857 0.09189894 -1.3148421 1.0983713 -0.49975178 -0.064174086 0.99780697 -0.9943155 -0.9192278 0.62164646 0.22595154 -0.377045 0.56890565 0.14998296 -0.5139299 -0.0125572365 -0.39771056 0.81724083 1.3508738 -1.6499025 0.5974247 -0.21325915 -0.005240561 -0.5421885 0.42215282 -0.4142696 -0.85606885 -0.378086 0.12933932 -0.7369461 0.16931094 0.6033161 0.40021822 -0.2305169 0.0011149565 -0.49858168 0.14037961 -0.7249425 -1.6115297 0.2161597 0.3053627 -0.9900852 -0.48943132 -0.12516838 2.1778429 -0.3229574 0.6335197 -1.5636431 -0.2617957 -1.3421742 -0.8830223 -0.21841761 0.64141786 1.082773 -0.19195302 0.07231177 0.46861818 0.3659861 0.25893888 -0.57636 -1.6191586 -1.3367795 -1.2184731 -0.6822102 0.45022416 -0.5317034 0.71522146 -1.053804 -0.2423051 0.9483638 0.769474 -0.37924898 0.11701325 -0.77891576 -0.28716692 0.8460671 -0.59021175 -1.1999363 1.1162505 -1.0366137 -0.3752629 0.8211253 -0.2534767 0.5858479 -0.075178325 -0.15522988 1.1974633 -0.55498075 -0.5198025 -1.1568903 -0.85258085 0.93945545 1.7383457 -1.9421188 0.85765916 0.42208093 0.22081523 0.31019166 0.1163168
assert 0.92667073 -0.23714878 0.75869554 2.6671467 0.1479026 -0.07064849 1.2164018 -0.06937341 0.5000344 0.43026933 0.6805391 -1.4621608 -0.3577089 -0.101592705 -0.42265993 -0.3569128 0.03471956 -0.6834572 -0.0005408976 0.13789366 0.69623154 0.90447366 0.04968251 -0.07968228 -0.3784654 0.6844444 -0.845124 -0.29007062 0.61264986 0.7278912 -0.23836195 0.36780027 2.220511 0.62422675 0.07087476 0.033567086 -0.57521284 -1.2771492 -1.1329992 -1.5392194 -0.14681345 -1.1101968 -1.0199564 -0.6621571 0.5725644 -1.0291464 0.40042093 1.184742 -0.82002294 0.0132607715 -0.19921522 -0.26196542 1.2511318 -0.78743505 1.0375363 0.7726602 0.26226297 0.80930144 -0.8820281 -0.9486284 -0.8657223 -0.21744569 -0.5819647 -0.29555297 0.5701168 0.5618783 -0.17633294 0.090089455 -0.91752106 1.5041538 -0.20191926 1.1781789 1.1070117 0.37710205 -1.0671638 -0.20369561 0.93383074 0.5510533 1.2832322 1.1868272 0.58429486 -0.192656 -0.59286505 0.24771523 -0.05244712 -0.7977149 -0.29782835 1.1031178 -0.94532675 1.2351118 -0.58217347 0.6680419 0.54907167 0.3565288 -0.5771138 0.23540387 1.447592 0.16018148 0.20051123 -0.28218728
uint8 -0.39035657 -0.736311 1.399433 1.1169446 0.58720374 0.46997178 -0.3305727 -0.17100902 1.1028706 0.63685054 -0.5618557 -0.52057 0.043128338 -0.4476526 1.4344816 -0.81566423 -0.014785882 -1.5024619 0.5609457 -0.557525 0.57484347 0.5791688 0.5627308 -0.5521332 0.52377164 -0.7157452 0.27196002 0.12179472 0.55603737 0.6452763 0.77760124 -0.076947235 1.7748443 -0.08470742 -0.03825381 0.7713049 0.39341873 0.56567407 0.47720313 -1.0196004 -0.20025784 -0.10841924 -1.1728563 -0.78171796 0.94704026 -1.4299543 0.38791165 0.12926361 -0.35883746 0.28311983 0.80627024 -1.2979605 -0.21027337 -0.32010946 0.08613637 0.4316871 0.41813123 -0.76550394 -0.46462646 -0.87404346 -0.14210711 -0.30228263 0.38604388 -0.32288325 -0.9219991 -0.82797056 1.3405578 -0.64653164 -1.170739 1.4480493 0.34445092 0.41749957 0.62960654 0.25925535 1.3210973 -0.08887494 0.6661713 0.4851083 1.1294847 -0.26625344 0.4086751 0.46154854 -0.78067344 0.006251289 -0.78387237 -0.25960118 -0.9518144 0.6328832 -0.0069777975 1.3340428 -0.10634363 1.0843655 0.4303489 -0.004533095 0.17090237 -0.018746644 0.40752035 0.74868083 -0.07673321 0.37272793
m -0.46428284 -0.50489247 1.0101913 0.022926725 0.16478835 -0.4516507 0.02866811 -0.5881972 0.1789037 -0.6850557 -0.7399574 -0.44768617 -1.0393159 -0.7875334 0.5996482 -1.8468395 -0.1326314 -0.8147395 -0.37587225 0.29576787 0.04535789 0.8136335 0.079458505 -0.6849334 0.9967656 0.18908603 -0.34634528 -0.061412863 1.0237074 0.67318493 -0.90160143 -0.83956707 1.5348446 0.77698576 1.2018079 0.45079818 -0.4240197 -1.0544568 0.64051926 -1.7987977 0.038201056 -0.5596879 -0.043140166 0.012748285 2.135066 -0.71826833 0.06972878 -0.14048178 -0.040045246 0.6667047 0.7709043 -0.7205035 0.8318533 -0.34330434 1.0384392 0.53031737 -0.35684922 0.59307826 -0.2787686 -1.0766441 -0.38141334 -0.56494415 -0.0914115 0.47585452 0.19044806 0.5439666 -0.3241119 0.5266063 -0.3923149 0.7425574 -0.13769156 0.051846124 0.51681465 -0.3449332 0.05813475 -0.52355695 0.6588653 0.56965774 1.2453694 0.82609004 0.67399275 -0.30581725 0.9613925 0.65092444 -0.37111774 -0.61926496 -0.08612099 0.26793477 -0.16282699 -0.7394754 0.18957494 0.5376066 1.087059 1.1675781 -0.23231831 0.47922808 -0.58616513 -1.2698246 -0.5988144 0.05360806
src 0.8488821 -0.027819093 0.9822644 1.3472627 -0.5040203 0.65745467 0.91343236 -0.46942845 0.4535232 1.2527199 -0.7149347 -0.9195796 0.046565518 -0.9370703 0.761907 -0.20539261 0.3506312 -0.57210076 0.3867283 -0.46858454 0.66156614 0.3880932 0.93445194 -0.81419396 0.31417164 0.13566674 0.301291 0.19930089 -0.3038363 1.2993548 0.67709416 -0.16042826 -0.455899 -0.46017092 0.584486 0.6179295 0.28287673 0.9027576 1.3752966 0.18968369 0.8299469 1.1029854 -0.59476334 -1.0478464 0.89521015 -1.4572023 -0.37114984 0.3776847 0.597435 0.11360081 0.86132973 -1.0662532 -0.9253034 -1.1610336 -0.8984964 -0.6599896 0.9587969 -0.6667786 0.23003039 -0.62926793 0.14936198 -0.017260535 0.89672655 0.23183727 -1.3332782 -0.81361836 0.9047289 -1.5094285 0.61642975 1.8339223 0.5731532 -0.341883 0.30251107 -0.20342702 2.0381923 -0.42520493 0.9581466 0.5529486 0.22979316 -1.093396 -0.06879139 0.7389602 -0.91651267 -0.41525427 -0.22854969 -0.6095996 -0.61692315 0.15917484 0.60631853 1.0000201 0.13074677 1.2068267 -1.2483739 -0.13572612 -0.22432418 0.6990979 -0.13688383 0.83415407 -0.0132016605 0.07653693
op 0.48723727 -0.26706183 0.5117108 1.3307155 0.026353065 0.8265959 -0.48453015 -0.8872039 0.6509706 0.8352011 -0.20755382 -1.4305665 0.33065772 -1.3366706 0.13319601 -0.94914633 0.11976736 -1.0084074 0.48568997 -0.70851064 0.06425794 1.3071313 0.5093567 -0.58384687 0.04536747 0.59483516 -0.04911306 0.32300386 0.078755595 0.9109091 0.05658253 -0.09627555 1.4180756 0.090757675 1.2428641 0.40222394 0.00014214682 -0.59191823 0.4934779 -0.61870134 0.2430492 -0.09085625 -1.2690983 -0.5059288 1.2476056 -1.3014133 0.08161462 0.48565617 -1.0006385 -0.06468623 0.6744091 -0.3360807 0.7930052 -0.6605039 0.72626406 0.312972 1.7814738 0.57634836 -1.1739169 -1.3246182 -0.48940918 -0.40741834 0.5410906 -0.94566566 0.36338076 -0.26937854 0.9244851 -1.1134017 -0.6268959 2.3774283 0.025563758 -0.3895292 0.8940665 0.6016248 0.2621431 -0.33279246 0.74629307 1.0491835 0.80585176 0.24219392 0.013122194 -0.11143366 -0.53648525 0.51422036 -0.9142474 -1.6855314 -0.15837617 0.27064052 1.069993 0.95030457 -0.6345025 1.6515427 0.20873047 0.6674043 0.02015322 -0.29622096 0.6166384 0.8442003 -0.4026507 -0.056145314
| 1.5357119 0.24472657 0.013068785 1.6109594 -0.981244 0.6860546 1.4560103 -0.6284314 -0.51588 1.2045678 -0.58958673 -1.1101923 0.06511933 -1.0315782 -0.6202474 -0.4975637 -0.0342777 0.2497091 -0.4304686 0.26030138 0.65405357 0.4840926 1.1832614 -0.59550256 0.5422444 1.3379344 0.10235609 -0.110705145 -0.27456796 1.5155183 -0.24630193 -0.34240907 -0.4664715 0.31334206 1.1902019 0.5165426 -0.5878438 -0.2378806 0.85785407 -0.11024658 1.3427179 1.2106215 0.052342728 -0.91095084 1.6819308 -1.4205035 -0.55719286 1.0690454 0.84283155 0.074373364 0.46650854 -0.7036727 0.33791277 -1.546514 -0.40161002 -0.70898026 1.2255585 0.42532337 -0.38176847 -0.83994657 0.043910377 -0.1156797 0.8977169 0.65398544 -0.22415395 -0.41652548 -0.022892613 -0.7807271 1.4318565 1.8343637 -0.107436165 -0.024122974 0.077086054 -0.24652623 0.4775166 -0.34838343 1.0638225 0.5687704 0.14670922 -0.554479 0.5612483 0.5218366 -0.53600806 0.042748976 0.04056885 -1.1475878 -0.19725253 -0.1807754 0.47992197 0.017308982 0.12962748 0.62671596 -1.2812139 -0.0117675625 -0.11164637 0.8090289 -0.41764933 -0.40509835 0.022088459 -0.77667564
image 1.3175142 0.037384305 -0.71512187 0.546892 0.4429029 0.51679814 0.6715528 1.0405549 -0.8825346 0.12246027 -0.062342126 1.1060053 0.77329946 -0.29611844 -0.59261084 0.87790906 0.08834657 1.1849346 -0.68588 1.295691 -0.04302678 -0.34473374 0.74555045 -0.07472454 -0.4566124 0.89080244 0.39390388 0.27312103 -0.20614283 0.41554466 -0.89974576 0.5695334 -0.35845208 0.84515184 -0.112275936 1.1780745 -1.7459254 0.3935552 -0.7873406 -0.6900878 0.6442036 1.4176805 -0.8245584 -0.18313159 -0.292608 -0.04827484 -0.2677363 0.64586866 0.35432342 -0.16053016 -0.4859628 -0.34377733 -0.673436 -0.48598662 -0.28112406 -0.8641768 0.29095107 0.10328995 0.13938466 0.5760498 0.0056497995 -1.0257392 -0.40710065 -0.13301168 -1.0055964 -0.5357131 0.67939496 -0.08711421 0.22298425 -0.19986172 -0.55761313 0.8378274 -1.4712688 -0.2605447 -0.098731585 0.0829973 0.64576507 -0.9995082 -1.1051003 -0.38422677 -0.26568562 0.9758519 -1.2156918 -0.18041773 0.83731866 -1.2296474 -0.029004596 1.0251063 -1.4796844 0.34971017 -0.91337645 0.06650537 0.24051742 0.43887737 -1.2727736 1.4245499 0.0650475 -0.012136104 0.36761752 -0.44291613
while 0.4925353 -0.18438584 0.6058668 1.3598548 -0.2996232 0.20390455 -0.3104968 -0.18135223 0.2593661 0.3788525 -0.16612247 -1.1007595 -0.1156361 -0.5666295 0.042237595 -0.46286 -0.10058285 -0.75916594 0.28012902 0.0015368054 -0.054872368 0.4609266 0.088343196 -0.22729366 0.47949317 0.3373795 0.24354093 -0.33783534 -0.15053289 0.39493537 0.6873702 -0.15366474 0.74641055 -0.14592743 0.2717788 0.054859903 0.3062941 -0.119294286 0.7024533 -0.18858433 0.13440798 -0.06968241 -0.5816664 -0.3525826 0.60127443 -0.7788914 0.544564 0.29583058 -0.4578845 -0.5206305 0.285539 -0.18207408 0.66525877 -0.113733456 0.28254542 0.53525 0.75571305 -0.20149505 -0.8300166 -0.55577594 -0.41038406 -0.48287037 0.31509322 -0.533921 0.076707095 0.1065164 0.5679179 -0.2836091 -0.670869 1.2840807 0.16992202 0.039817847 0.23432952 0.1405104 0.355864 -0.07083031 0.37438393 0.49441484 0.43145797 -0.024835935 0.4580594 0.018633774 -0.28303903 0.18236127 -0.5271698 -0.5047111 -0.71369946 0.19209358 0.43072787 0.46107495 -0.06869262 0.94930947 0.019385194 0.12445366 0.21774594 -0.17704274 0.6452393 0.8126498 -0.0045716893 -0.13726743
spp 0.6240336 -0.09391638 1.3461819 2.0550675 0.44906715 0.15010731 0.24515332 1.2793143 0.928693 0.71719426 -0.67824644 -0.26551074 0.8635281 -0.41013557 0.7401937 0.37155744 -0.010726717 0.153976 -0.101583555 0.6752333 0.43450585 -0.09210464 0.59218824 -0.66405666 0.01567988 -0.5392716 0.7533111 0.21170546 -0.1401115 0.6942194 0.68213415 0.7329698 0.47336388 0.18599738 -0.70065004 1.4210136 -0.67854786 1.5520138 -0.048090518 -1.2609755 -0.06777222 1.151657 -1.7295755 -0.8229626 -4.228889e-05 -1.507261 0.24702783 0.30377626 0.3548966 -0.34553006 0.3598853 -1.1267006 -1.0900837 0.096891455 -0.6487183 -0.60741794 0.3654961 -0.8380018 -0.14000611 0.53788245 -0.2710936 -0.64667934 0.20697875 -0.602738 -1.6342472 -1.0853717 1.9188018 -0.8905008 -0.69297665 0.5403043 -0.6671902 0.5625686 -0.6531496 0.04303426 1.8048792 0.3921615 0.34870243 -0.081443734 0.2174432 -0.9389537 0.14111081 0.7470991 -1.4087714 -0.2577417 0.31482437 -1.0876807 -0.95699656 0.91550994 -0.5136199 2.0022135 -0.42431515 1.349739 0.29701564 -0.15894367 -0.54564524 0.8730447 0.34369203 1.1405182 0.57963467 0.7587116
input 1.0191718 -0.34026402 -0.19970913 0.6035566 -0.32686478 0.2614678 1.2127221 -0.7045573 -0.91614646 -0.71443063 0.388813 -0.14443734 -0.73245066 0.059923347 -0.8098918 1.0348867 0.38040733 0.3553918 0.2256993 0.9571487 -0.60246706 0.26907486 -0.38120517 0.27849624 0.22261128 1.4251919 -0.37988788 -0.7175529 -0.23709194 0.6037874 0.44020346 0.085413106 -1.2164992 0.22602867 0.7407997 -0.076756515 -0.111531064 -0.91696376 0.24223396 -0.024643127 1.0192081 0.27878845 -0.029366542 -0.7491798 0.7237038 0.567423 -0.15304191 1.1530014 0.08618487 -0.47148854 -0.9428359 -0.51702553 -0.3534539 -1.7393854 0.4595172 -0.5072012 -0.81325346 0.14149255 0.69629645 -0.050136052 0.15213865 -0.19459817 -1.3033799 0.055260997 -1.0077289 1.1382698 -0.89629495 0.04473071 0.30896652 0.41195452 1.6355846 1.0673213 0.29336348 -0.24360721 -0.39779028 -0.6743909 1.1084673 -0.063826114 -0.82997626 0.90165746 -0.17920099 0.23972681 -1.1112953 -0.56585765 -0.11073036 -0.08731911 -0.5935776 1.2035369 -1.74934 -1.28894 -0.5322651 -0.5191891 -0.95626193 1.4720544 -1.2026751 0.6920349 0.43631628 -0.14008309 0.48782584 -1.2181714
: 1.2925667 0.5339438 -0.7993672 -0.09076267 -0.32808703 0.1812833 1.4012766 0.32832643 -0.9613922 0.17310114 -0.041226685 0.08160054 -0.42269865 -0.44426966 -0.56557286 -0.05040473 0.22246364 0.28555134 -0.84774256 1.435401 0.4360581 0.037013426 0.8849936 -0.27846193 0.15721844 0.4077434 -0.2602535 -0.5457183 0.08387038 0.7014836 -0.65930796 0.49794698 -0.43191022 0.41551232 -0.30737194 0.002050326 -1.5673395 0.32320467 -0.0056061884 -0.4659841 0.61307406 1.0345198 0.3252034 0.37205786 -0.15785255 0.3816999 0.24737759 0.7620105 0.42967978 -0.6014501 -0.6281722 -0.2822039 0.08444979 -0.26100406 -0.2083773 -0.44129625 0.2440838 0.25574374 -0.42576674 -0.07497885 0.23876663 -0.41041055 -0.12480878 0.32508358 0.2808066 -0.2565529 -0.30831733 0.027404852 1.0790491 0.2999871 -0.28458583 1.0268294 -1.0975446 -0.7228 -0.54168016 0.005035485 0.63799196 -0.4560416 -0.95277953 -0.090679914 0.2470896 0.63430905 -0.5712628 -0.19751194 0.78722966 -0.46429116 -0.1119188 0.91465646 -1.2798005 -0.1719312 -0.11471546 0.014383578 -0.99711454 -0.5552412 -0.9373631 0.5625342 0.2511271 0.0068429573 0.16044919 -0.49472094
width 0.7047279 -0.0206454 0.3728037 1.2059885 0.09081855 0.43315318 0.096005395 0.6380577 0.114499204 0.061831422 -0.34688795 0.28557336 0.5619746 -0.6040136 0.36735892 0.507357 0.19431977 0.066720895 -0.14420404 0.5778446 0.25445864 -0.10116023 0.41070157 -0.34896153 0.015668815 -0.05377949 0.38213202 -0.010499854 0.024503492 0.38596007 0.27977702 0.35965654 0.0009513915 0.111592814 -0.4920894 0.78612554 -0.7041023 0.74169445 0.053721424 -0.6549626 0.120562464 0.89513505 -1.1096985 -0.38297948 -0.18744889 -0.79614663 0.26934683 0.30345124 0.07072223 -0.5212865 -0.0052016135 -0.8234488 -0.6971484 -0.32521027 -0.3790846 -0.31402782 0.14839037 -0.47030264 0.077879556 0.34117505 -0.21696778 -0.39689386 0.024832077 -0.48308313 -1.081414 -0.50191563 0.97529024 -0.5911737 -0.311973 0.34967995 -0.1758524 0.3111374 -0.609596 -0.09213763 1.0762924 0.114657335 0.5018239 -0.3517828 -0.20952302 -0.45624238 -0.11515364 0.8549873 -1.2856089 -0.26455548 0.07879194 -0.8043755 -0.5033349 0.8427344 -0.7169085 1.0396283 -0.44616112 1.0406197 0.013114137 0.0055356077 -0.65686613 0.814453 0.45086128 0.8239542 0.41091084 0.18373264
c -0.25750843 0.124615036 0.9074428 -0.16567907 0.10718826 -0.7667619 0.44054675 -0.12928954 0.46017882 0.94826365 -0.07927467 -1.185129 -0.6993529 0.057443086 0.6853561 -0.77475977 -0.047347896 -0.81529695 0.63988143 0.0852009 0.02993765 0.78841263 0.35735688 -0.60269225 0.23093009 -0.81446433 -0.20395721 -0.15553792 -0.26606363 0.6215722 0.2688883 0.5559682 0.5051542 -0.3705382 0.11420833 -0.057532027 0.09859289 0.66734546 0.9550135 -0.4604321 0.21617013 0.44685185 -0.5207407 -0.25643522 0.44360834 0.09529292 0.072676666 0.29967937 -0.30919984 0.10170487 0.16828877 -0.5794014 -0.31578615 0.041993536 0.06119096 -0.35499018 0.48040175 -0.6222365 -0.41916397 -0.35922214 0.24333994 -0.22896546 0.0034012473 -0.09366853 -0.46504232 -0.22018437 0.7283587 -0.6776807 0.068741255 1.2925891 0.2240374 0.211359 0.107565604 -0.3503721 0.76709056 -0.32884875 0.05287304 0.5600664 0.14533998 -0.11585476 -0.13764937 -0.30464074 0.32948825 -0.25209987 0.18788867 0.19537215 -0.8054878 0.20496827 0.48396915 0.23908009 -0.11032554 0.51959145 -0.57144517 0.1953965 -0.5168449 0.05949527 -0.025656685 0.825467 -0.39994505 0.4774746
